{"learner":{"attributes":{"best_iteration":"2803","best_score":"1.3071568776732","scikit_learn":"{\"_estimator_type\": \"regressor\"}"},"feature_names":["pm25_rolling_mean_3d","pm25_rolling_std_3d","pm25_rolling_max_3d","pm25_rolling_mean_7d","pm25_rolling_std_7d","pm25_rolling_max_7d","pm25_lag_1d","pm25_lag_2d","pm25_lag_3d","pm25_diff_1d","pm25_pct_change","pm25_ema_3d","pm25_ema_7d","pm25_percentile","pm25_skew_7d","pm25_trend_3d","pm25_trend_7d","pm25_trend_14d","pm25_volatility_3d","pm25_volatility_7d","pm25_volatility_14d","pm25_zscore","day_of_week","is_weekend","month","month_cos","month_sin","temperature_2m_mean","precipitation_sum","wind_speed_10m_max","wind_direction_10m_dominant","temperature_2m_mean_rolling_mean_3d","precipitation_sum_rolling_mean_3d","wind_speed_10m_max_rolling_mean_3d","temp_wind_interaction","temp_precip_interaction","temp_wind_precip","wind_direction_sin","wind_direction_cos","wind_efficiency","high_temp_low_wind"],"feature_types":["float","float","float","float","float","float","float","float","float","float","float","float","float","float","float","float","float","float","float","float","float","float","int","int","int","float","float","float","float","float","float","float","float","float","float","float","float","float","float","float","int"],"gradient_booster":{"model":{"gbtree_model_param":{"num_parallel_tree":"1","num_trees":"2854"},"iteration_indptr":[0,1,2,3,4,5,6,7,8,9,10,11,12,13,14,15,16,17,18,19,20,21,22,23,24,25,26,27,28,29,30,31,32,33,34,35,36,37,38,39,40,41,42,43,44,45,46,47,48,49,50,51,52,53,54,55,56,57,58,59,60,61,62,63,64,65,66,67,68,69,70,71,72,73,74,75,76,77,78,79,80,81,82,83,84,85,86,87,88,89,90,91,92,93,94,95,96,97,98,99,100,101,102,103,104,105,106,107,108,109,110,111,112,113,114,115,116,117,118,119,120,121,122,123,124,125,126,127,128,129,130,131,132,133,134,135,136,137,138,139,140,141,142,143,144,145,146,147,148,149,150,151,152,153,154,155,156,157,158,159,160,161,162,163,164,165,166,167,168,169,170,171,172,173,174,175,176,177,178,179,180,181,182,183,184,185,186,187,188,189,190,191,192,193,194,195,196,197,198,199,200,201,202,203,204,205,206,207,208,209,210,211,212,213,214,215,216,217,218,219,220,221,222,223,224,225,226,227,228,229,230,231,232,233,234,235,236,237,238,239,240,241,242,243,244,245,246,247,248,249,250,251,252,253,254,255,256,257,258,259,260,261,262,263,264,265,266,267,268,269,270,271,272,273,274,275,276,277,278,279,280,281,282,283,284,285,286,287,288,289,290,291,292,293,294,295,296,297,298,299,300,301,302,303,304,305,306,307,308,309,310,311,312,313,314,315,316,317,318,319,320,321,322,323,324,325,326,327,328,329,330,331,332,333,334,335,336,337,338,339,340,341,342,343,344,345,346,347,348,349,350,351,352,353,354,355,356,357,358,359,360,361,362,363,364,365,366,367,368,369,370,371,372,373,374,375,376,377,378,379,380,381,382,383,384,385,386,387,388,389,390,391,392,393,394,395,396,397,398,399,400,401,402,403,404,405,406,407,408,409,410,411,412,413,414,415,416,417,418,419,420,421,422,423,424,425,426,427,428,429,430,431,432,433,434,435,436,437,438,439,440,441,442,443,444,445,446,447,448,449,450,451,452,453,454,455,456,457,458,459,460,461,462,463,464,465,466,467,468,469,470,471,472,473,474,475,476,477,478,479,480,481,482,483,484,485,486,487,488,489,490,491,492,493,494,495,496,497,498,499,500,501,502,503,504,505,506,507,508,509,510,511,512,513,514,515,516,517,518,519,520,521,522,523,524,525,526,527,528,529,530,531,532,533,534,535,536,537,538,539,540,541,542,543,544,545,546,547,548,549,550,551,552,553,554,555,556,557,558,559,560,561,562,563,564,565,566,567,568,569,570,571,572,573,574,575,576,577,578,579,580,581,582,583,584,585,586,587,588,589,590,591,592,593,594,595,596,597,598,599,600,601,602,603,604,605,606,607,608,609,610,611,612,613,614,615,616,617,618,619,620,621,622,623,624,625,626,627,628,629,630,631,632,633,634,635,636,637,638,639,640,641,642,643,644,645,646,647,648,649,650,651,652,653,654,655,656,657,658,659,660,661,662,663,664,665,666,667,668,669,670,671,672,673,674,675,676,677,678,679,680,681,682,683,684,685,686,687,688,689,690,691,692,693,694,695,696,697,698,699,700,701,702,703,704,705,706,707,708,709,710,711,712,713,714,715,716,717,718,719,720,721,722,723,724,725,726,727,728,729,730,731,732,733,734,735,736,737,738,739,740,741,742,743,744,745,746,747,748,749,750,751,752,753,754,755,756,757,758,759,760,761,762,763,764,765,766,767,768,769,770,771,772,773,774,775,776,777,778,779,780,781,782,783,784,785,786,787,788,789,790,791,792,793,794,795,796,797,798,799,800,801,802,803,804,805,806,807,808,809,810,811,812,813,814,815,816,817,818,819,820,821,822,823,824,825,826,827,828,829,830,831,832,833,834,835,836,837,838,839,840,841,842,843,844,845,846,847,848,849,850,851,852,853,854,855,856,857,858,859,860,861,862,863,864,865,866,867,868,869,870,871,872,873,874,875,876,877,878,879,880,881,882,883,884,885,886,887,888,889,890,891,892,893,894,895,896,897,898,899,900,901,902,903,904,905,906,907,908,909,910,911,912,913,914,915,916,917,918,919,920,921,922,923,924,925,926,927,928,929,930,931,932,933,934,935,936,937,938,939,940,941,942,943,944,945,946,947,948,949,950,951,952,953,954,955,956,957,958,959,960,961,962,963,964,965,966,967,968,969,970,971,972,973,974,975,976,977,978,979,980,981,982,983,984,985,986,987,988,989,990,991,992,993,994,995,996,997,998,999,1000,1001,1002,1003,1004,1005,1006,1007,1008,1009,1010,1011,1012,1013,1014,1015,1016,1017,1018,1019,1020,1021,1022,1023,1024,1025,1026,1027,1028,1029,1030,1031,1032,1033,1034,1035,1036,1037,1038,1039,1040,1041,1042,1043,1044,1045,1046,1047,1048,1049,1050,1051,1052,1053,1054,1055,1056,1057,1058,1059,1060,1061,1062,1063,1064,1065,1066,1067,1068,1069,1070,1071,1072,1073,1074,1075,1076,1077,1078,1079,1080,1081,1082,1083,1084,1085,1086,1087,1088,1089,1090,1091,1092,1093,1094,1095,1096,1097,1098,1099,1100,1101,1102,1103,1104,1105,1106,1107,1108,1109,1110,1111,1112,1113,1114,1115,1116,1117,1118,1119,1120,1121,1122,1123,1124,1125,1126,1127,1128,1129,1130,1131,1132,1133,1134,1135,1136,1137,1138,1139,1140,1141,1142,1143,1144,1145,1146,1147,1148,1149,1150,1151,1152,1153,1154,1155,1156,1157,1158,1159,1160,1161,1162,1163,1164,1165,1166,1167,1168,1169,1170,1171,1172,1173,1174,1175,1176,1177,1178,1179,1180,1181,1182,1183,1184,1185,1186,1187,1188,1189,1190,1191,1192,1193,1194,1195,1196,1197,1198,1199,1200,1201,1202,1203,1204,1205,1206,1207,1208,1209,1210,1211,1212,1213,1214,1215,1216,1217,1218,1219,1220,1221,1222,1223,1224,1225,1226,1227,1228,1229,1230,1231,1232,1233,1234,1235,1236,1237,1238,1239,1240,1241,1242,1243,1244,1245,1246,1247,1248,1249,1250,1251,1252,1253,1254,1255,1256,1257,1258,1259,1260,1261,1262,1263,1264,1265,1266,1267,1268,1269,1270,1271,1272,1273,1274,1275,1276,1277,1278,1279,1280,1281,1282,1283,1284,1285,1286,1287,1288,1289,1290,1291,1292,1293,1294,1295,1296,1297,1298,1299,1300,1301,1302,1303,1304,1305,1306,1307,1308,1309,1310,1311,1312,1313,1314,1315,1316,1317,1318,1319,1320,1321,1322,1323,1324,1325,1326,1327,1328,1329,1330,1331,1332,1333,1334,1335,1336,1337,1338,1339,1340,1341,1342,1343,1344,1345,1346,1347,1348,1349,1350,1351,1352,1353,1354,1355,1356,1357,1358,1359,1360,1361,1362,1363,1364,1365,1366,1367,1368,1369,1370,1371,1372,1373,1374,1375,1376,1377,1378,1379,1380,1381,1382,1383,1384,1385,1386,1387,1388,1389,1390,1391,1392,1393,1394,1395,1396,1397,1398,1399,1400,1401,1402,1403,1404,1405,1406,1407,1408,1409,1410,1411,1412,1413,1414,1415,1416,1417,1418,1419,1420,1421,1422,1423,1424,1425,1426,1427,1428,1429,1430,1431,1432,1433,1434,1435,1436,1437,1438,1439,1440,1441,1442,1443,1444,1445,1446,1447,1448,1449,1450,1451,1452,1453,1454,1455,1456,1457,1458,1459,1460,1461,1462,1463,1464,1465,1466,1467,1468,1469,1470,1471,1472,1473,1474,1475,1476,1477,1478,1479,1480,1481,1482,1483,1484,1485,1486,1487,1488,1489,1490,1491,1492,1493,1494,1495,1496,1497,1498,1499,1500,1501,1502,1503,1504,1505,1506,1507,1508,1509,1510,1511,1512,1513,1514,1515,1516,1517,1518,1519,1520,1521,1522,1523,1524,1525,1526,1527,1528,1529,1530,1531,1532,1533,1534,1535,1536,1537,1538,1539,1540,1541,1542,1543,1544,1545,1546,1547,1548,1549,1550,1551,1552,1553,1554,1555,1556,1557,1558,1559,1560,1561,1562,1563,1564,1565,1566,1567,1568,1569,1570,1571,1572,1573,1574,1575,1576,1577,1578,1579,1580,1581,1582,1583,1584,1585,1586,1587,1588,1589,1590,1591,1592,1593,1594,1595,1596,1597,1598,1599,1600,1601,1602,1603,1604,1605,1606,1607,1608,1609,1610,1611,1612,1613,1614,1615,1616,1617,1618,1619,1620,1621,1622,1623,1624,1625,1626,1627,1628,1629,1630,1631,1632,1633,1634,1635,1636,1637,1638,1639,1640,1641,1642,1643,1644,1645,1646,1647,1648,1649,1650,1651,1652,1653,1654,1655,1656,1657,1658,1659,1660,1661,1662,1663,1664,1665,1666,1667,1668,1669,1670,1671,1672,1673,1674,1675,1676,1677,1678,1679,1680,1681,1682,1683,1684,1685,1686,1687,1688,1689,1690,1691,1692,1693,1694,1695,1696,1697,1698,1699,1700,1701,1702,1703,1704,1705,1706,1707,1708,1709,1710,1711,1712,1713,1714,1715,1716,1717,1718,1719,1720,1721,1722,1723,1724,1725,1726,1727,1728,1729,1730,1731,1732,1733,1734,1735,1736,1737,1738,1739,1740,1741,1742,1743,1744,1745,1746,1747,1748,1749,1750,1751,1752,1753,1754,1755,1756,1757,1758,1759,1760,1761,1762,1763,1764,1765,1766,1767,1768,1769,1770,1771,1772,1773,1774,1775,1776,1777,1778,1779,1780,1781,1782,1783,1784,1785,1786,1787,1788,1789,1790,1791,1792,1793,1794,1795,1796,1797,1798,1799,1800,1801,1802,1803,1804,1805,1806,1807,1808,1809,1810,1811,1812,1813,1814,1815,1816,1817,1818,1819,1820,1821,1822,1823,1824,1825,1826,1827,1828,1829,1830,1831,1832,1833,1834,1835,1836,1837,1838,1839,1840,1841,1842,1843,1844,1845,1846,1847,1848,1849,1850,1851,1852,1853,1854,1855,1856,1857,1858,1859,1860,1861,1862,1863,1864,1865,1866,1867,1868,1869,1870,1871,1872,1873,1874,1875,1876,1877,1878,1879,1880,1881,1882,1883,1884,1885,1886,1887,1888,1889,1890,1891,1892,1893,1894,1895,1896,1897,1898,1899,1900,1901,1902,1903,1904,1905,1906,1907,1908,1909,1910,1911,1912,1913,1914,1915,1916,1917,1918,1919,1920,1921,1922,1923,1924,1925,1926,1927,1928,1929,1930,1931,1932,1933,1934,1935,1936,1937,1938,1939,1940,1941,1942,1943,1944,1945,1946,1947,1948,1949,1950,1951,1952,1953,1954,1955,1956,1957,1958,1959,1960,1961,1962,1963,1964,1965,1966,1967,1968,1969,1970,1971,1972,1973,1974,1975,1976,1977,1978,1979,1980,1981,1982,1983,1984,1985,1986,1987,1988,1989,1990,1991,1992,1993,1994,1995,1996,1997,1998,1999,2000,2001,2002,2003,2004,2005,2006,2007,2008,2009,2010,2011,2012,2013,2014,2015,2016,2017,2018,2019,2020,2021,2022,2023,2024,2025,2026,2027,2028,2029,2030,2031,2032,2033,2034,2035,2036,2037,2038,2039,2040,2041,2042,2043,2044,2045,2046,2047,2048,2049,2050,2051,2052,2053,2054,2055,2056,2057,2058,2059,2060,2061,2062,2063,2064,2065,2066,2067,2068,2069,2070,2071,2072,2073,2074,2075,2076,2077,2078,2079,2080,2081,2082,2083,2084,2085,2086,2087,2088,2089,2090,2091,2092,2093,2094,2095,2096,2097,2098,2099,2100,2101,2102,2103,2104,2105,2106,2107,2108,2109,2110,2111,2112,2113,2114,2115,2116,2117,2118,2119,2120,2121,2122,2123,2124,2125,2126,2127,2128,2129,2130,2131,2132,2133,2134,2135,2136,2137,2138,2139,2140,2141,2142,2143,2144,2145,2146,2147,2148,2149,2150,2151,2152,2153,2154,2155,2156,2157,2158,2159,2160,2161,2162,2163,2164,2165,2166,2167,2168,2169,2170,2171,2172,2173,2174,2175,2176,2177,2178,2179,2180,2181,2182,2183,2184,2185,2186,2187,2188,2189,2190,2191,2192,2193,2194,2195,2196,2197,2198,2199,2200,2201,2202,2203,2204,2205,2206,2207,2208,2209,2210,2211,2212,2213,2214,2215,2216,2217,2218,2219,2220,2221,2222,2223,2224,2225,2226,2227,2228,2229,2230,2231,2232,2233,2234,2235,2236,2237,2238,2239,2240,2241,2242,2243,2244,2245,2246,2247,2248,2249,2250,2251,2252,2253,2254,2255,2256,2257,2258,2259,2260,2261,2262,2263,2264,2265,2266,2267,2268,2269,2270,2271,2272,2273,2274,2275,2276,2277,2278,2279,2280,2281,2282,2283,2284,2285,2286,2287,2288,2289,2290,2291,2292,2293,2294,2295,2296,2297,2298,2299,2300,2301,2302,2303,2304,2305,2306,2307,2308,2309,2310,2311,2312,2313,2314,2315,2316,2317,2318,2319,2320,2321,2322,2323,2324,2325,2326,2327,2328,2329,2330,2331,2332,2333,2334,2335,2336,2337,2338,2339,2340,2341,2342,2343,2344,2345,2346,2347,2348,2349,2350,2351,2352,2353,2354,2355,2356,2357,2358,2359,2360,2361,2362,2363,2364,2365,2366,2367,2368,2369,2370,2371,2372,2373,2374,2375,2376,2377,2378,2379,2380,2381,2382,2383,2384,2385,2386,2387,2388,2389,2390,2391,2392,2393,2394,2395,2396,2397,2398,2399,2400,2401,2402,2403,2404,2405,2406,2407,2408,2409,2410,2411,2412,2413,2414,2415,2416,2417,2418,2419,2420,2421,2422,2423,2424,2425,2426,2427,2428,2429,2430,2431,2432,2433,2434,2435,2436,2437,2438,2439,2440,2441,2442,2443,2444,2445,2446,2447,2448,2449,2450,2451,2452,2453,2454,2455,2456,2457,2458,2459,2460,2461,2462,2463,2464,2465,2466,2467,2468,2469,2470,2471,2472,2473,2474,2475,2476,2477,2478,2479,2480,2481,2482,2483,2484,2485,2486,2487,2488,2489,2490,2491,2492,2493,2494,2495,2496,2497,2498,2499,2500,2501,2502,2503,2504,2505,2506,2507,2508,2509,2510,2511,2512,2513,2514,2515,2516,2517,2518,2519,2520,2521,2522,2523,2524,2525,2526,2527,2528,2529,2530,2531,2532,2533,2534,2535,2536,2537,2538,2539,2540,2541,2542,2543,2544,2545,2546,2547,2548,2549,2550,2551,2552,2553,2554,2555,2556,2557,2558,2559,2560,2561,2562,2563,2564,2565,2566,2567,2568,2569,2570,2571,2572,2573,2574,2575,2576,2577,2578,2579,2580,2581,2582,2583,2584,2585,2586,2587,2588,2589,2590,2591,2592,2593,2594,2595,2596,2597,2598,2599,2600,2601,2602,2603,2604,2605,2606,2607,2608,2609,2610,2611,2612,2613,2614,2615,2616,2617,2618,2619,2620,2621,2622,2623,2624,2625,2626,2627,2628,2629,2630,2631,2632,2633,2634,2635,2636,2637,2638,2639,2640,2641,2642,2643,2644,2645,2646,2647,2648,2649,2650,2651,2652,2653,2654,2655,2656,2657,2658,2659,2660,2661,2662,2663,2664,2665,2666,2667,2668,2669,2670,2671,2672,2673,2674,2675,2676,2677,2678,2679,2680,2681,2682,2683,2684,2685,2686,2687,2688,2689,2690,2691,2692,2693,2694,2695,2696,2697,2698,2699,2700,2701,2702,2703,2704,2705,2706,2707,2708,2709,2710,2711,2712,2713,2714,2715,2716,2717,2718,2719,2720,2721,2722,2723,2724,2725,2726,2727,2728,2729,2730,2731,2732,2733,2734,2735,2736,2737,2738,2739,2740,2741,2742,2743,2744,2745,2746,2747,2748,2749,2750,2751,2752,2753,2754,2755,2756,2757,2758,2759,2760,2761,2762,2763,2764,2765,2766,2767,2768,2769,2770,2771,2772,2773,2774,2775,2776,2777,2778,2779,2780,2781,2782,2783,2784,2785,2786,2787,2788,2789,2790,2791,2792,2793,2794,2795,2796,2797,2798,2799,2800,2801,2802,2803,2804,2805,2806,2807,2808,2809,2810,2811,2812,2813,2814,2815,2816,2817,2818,2819,2820,2821,2822,2823,2824,2825,2826,2827,2828,2829,2830,2831,2832,2833,2834,2835,2836,2837,2838,2839,2840,2841,2842,2843,2844,2845,2846,2847,2848,2849,2850,2851,2852,2853,2854],"tree_info":[0,0,0,0,0,0,0,0,0,0,0,0,0,0,0,0,0,0,0,0,0,0,0,0,0,0,0,0,0,0,0,0,0,0,0,0,0,0,0,0,0,0,0,0,0,0,0,0,0,0,0,0,0,0,0,0,0,0,0,0,0,0,0,0,0,0,0,0,0,0,0,0,0,0,0,0,0,0,0,0,0,0,0,0,0,0,0,0,0,0,0,0,0,0,0,0,0,0,0,0,0,0,0,0,0,0,0,0,0,0,0,0,0,0,0,0,0,0,0,0,0,0,0,0,0,0,0,0,0,0,0,0,0,0,0,0,0,0,0,0,0,0,0,0,0,0,0,0,0,0,0,0,0,0,0,0,0,0,0,0,0,0,0,0,0,0,0,0,0,0,0,0,0,0,0,0,0,0,0,0,0,0,0,0,0,0,0,0,0,0,0,0,0,0,0,0,0,0,0,0,0,0,0,0,0,0,0,0,0,0,0,0,0,0,0,0,0,0,0,0,0,0,0,0,0,0,0,0,0,0,0,0,0,0,0,0,0,0,0,0,0,0,0,0,0,0,0,0,0,0,0,0,0,0,0,0,0,0,0,0,0,0,0,0,0,0,0,0,0,0,0,0,0,0,0,0,0,0,0,0,0,0,0,0,0,0,0,0,0,0,0,0,0,0,0,0,0,0,0,0,0,0,0,0,0,0,0,0,0,0,0,0,0,0,0,0,0,0,0,0,0,0,0,0,0,0,0,0,0,0,0,0,0,0,0,0,0,0,0,0,0,0,0,0,0,0,0,0,0,0,0,0,0,0,0,0,0,0,0,0,0,0,0,0,0,0,0,0,0,0,0,0,0,0,0,0,0,0,0,0,0,0,0,0,0,0,0,0,0,0,0,0,0,0,0,0,0,0,0,0,0,0,0,0,0,0,0,0,0,0,0,0,0,0,0,0,0,0,0,0,0,0,0,0,0,0,0,0,0,0,0,0,0,0,0,0,0,0,0,0,0,0,0,0,0,0,0,0,0,0,0,0,0,0,0,0,0,0,0,0,0,0,0,0,0,0,0,0,0,0,0,0,0,0,0,0,0,0,0,0,0,0,0,0,0,0,0,0,0,0,0,0,0,0,0,0,0,0,0,0,0,0,0,0,0,0,0,0,0,0,0,0,0,0,0,0,0,0,0,0,0,0,0,0,0,0,0,0,0,0,0,0,0,0,0,0,0,0,0,0,0,0,0,0,0,0,0,0,0,0,0,0,0,0,0,0,0,0,0,0,0,0,0,0,0,0,0,0,0,0,0,0,0,0,0,0,0,0,0,0,0,0,0,0,0,0,0,0,0,0,0,0,0,0,0,0,0,0,0,0,0,0,0,0,0,0,0,0,0,0,0,0,0,0,0,0,0,0,0,0,0,0,0,0,0,0,0,0,0,0,0,0,0,0,0,0,0,0,0,0,0,0,0,0,0,0,0,0,0,0,0,0,0,0,0,0,0,0,0,0,0,0,0,0,0,0,0,0,0,0,0,0,0,0,0,0,0,0,0,0,0,0,0,0,0,0,0,0,0,0,0,0,0,0,0,0,0,0,0,0,0,0,0,0,0,0,0,0,0,0,0,0,0,0,0,0,0,0,0,0,0,0,0,0,0,0,0,0,0,0,0,0,0,0,0,0,0,0,0,0,0,0,0,0,0,0,0,0,0,0,0,0,0,0,0,0,0,0,0,0,0,0,0,0,0,0,0,0,0,0,0,0,0,0,0,0,0,0,0,0,0,0,0,0,0,0,0,0,0,0,0,0,0,0,0,0,0,0,0,0,0,0,0,0,0,0,0,0,0,0,0,0,0,0,0,0,0,0,0,0,0,0,0,0,0,0,0,0,0,0,0,0,0,0,0,0,0,0,0,0,0,0,0,0,0,0,0,0,0,0,0,0,0,0,0,0,0,0,0,0,0,0,0,0,0,0,0,0,0,0,0,0,0,0,0,0,0,0,0,0,0,0,0,0,0,0,0,0,0,0,0,0,0,0,0,0,0,0,0,0,0,0,0,0,0,0,0,0,0,0,0,0,0,0,0,0,0,0,0,0,0,0,0,0,0,0,0,0,0,0,0,0,0,0,0,0,0,0,0,0,0,0,0,0,0,0,0,0,0,0,0,0,0,0,0,0,0,0,0,0,0,0,0,0,0,0,0,0,0,0,0,0,0,0,0,0,0,0,0,0,0,0,0,0,0,0,0,0,0,0,0,0,0,0,0,0,0,0,0,0,0,0,0,0,0,0,0,0,0,0,0,0,0,0,0,0,0,0,0,0,0,0,0,0,0,0,0,0,0,0,0,0,0,0,0,0,0,0,0,0,0,0,0,0,0,0,0,0,0,0,0,0,0,0,0,0,0,0,0,0,0,0,0,0,0,0,0,0,0,0,0,0,0,0,0,0,0,0,0,0,0,0,0,0,0,0,0,0,0,0,0,0,0,0,0,0,0,0,0,0,0,0,0,0,0,0,0,0,0,0,0,0,0,0,0,0,0,0,0,0,0,0,0,0,0,0,0,0,0,0,0,0,0,0,0,0,0,0,0,0,0,0,0,0,0,0,0,0,0,0,0,0,0,0,0,0,0,0,0,0,0,0,0,0,0,0,0,0,0,0,0,0,0,0,0,0,0,0,0,0,0,0,0,0,0,0,0,0,0,0,0,0,0,0,0,0,0,0,0,0,0,0,0,0,0,0,0,0,0,0,0,0,0,0,0,0,0,0,0,0,0,0,0,0,0,0,0,0,0,0,0,0,0,0,0,0,0,0,0,0,0,0,0,0,0,0,0,0,0,0,0,0,0,0,0,0,0,0,0,0,0,0,0,0,0,0,0,0,0,0,0,0,0,0,0,0,0,0,0,0,0,0,0,0,0,0,0,0,0,0,0,0,0,0,0,0,0,0,0,0,0,0,0,0,0,0,0,0,0,0,0,0,0,0,0,0,0,0,0,0,0,0,0,0,0,0,0,0,0,0,0,0,0,0,0,0,0,0,0,0,0,0,0,0,0,0,0,0,0,0,0,0,0,0,0,0,0,0,0,0,0,0,0,0,0,0,0,0,0,0,0,0,0,0,0,0,0,0,0,0,0,0,0,0,0,0,0,0,0,0,0,0,0,0,0,0,0,0,0,0,0,0,0,0,0,0,0,0,0,0,0,0,0,0,0,0,0,0,0,0,0,0,0,0,0,0,0,0,0,0,0,0,0,0,0,0,0,0,0,0,0,0,0,0,0,0,0,0,0,0,0,0,0,0,0,0,0,0,0,0,0,0,0,0,0,0,0,0,0,0,0,0,0,0,0,0,0,0,0,0,0,0,0,0,0,0,0,0,0,0,0,0,0,0,0,0,0,0,0,0,0,0,0,0,0,0,0,0,0,0,0,0,0,0,0,0,0,0,0,0,0,0,0,0,0,0,0,0,0,0,0,0,0,0,0,0,0,0,0,0,0,0,0,0,0,0,0,0,0,0,0,0,0,0,0,0,0,0,0,0,0,0,0,0,0,0,0,0,0,0,0,0,0,0,0,0,0,0,0,0,0,0,0,0,0,0,0,0,0,0,0,0,0,0,0,0,0,0,0,0,0,0,0,0,0,0,0,0,0,0,0,0,0,0,0,0,0,0,0,0,0,0,0,0,0,0,0,0,0,0,0,0,0,0,0,0,0,0,0,0,0,0,0,0,0,0,0,0,0,0,0,0,0,0,0,0,0,0,0,0,0,0,0,0,0,0,0,0,0,0,0,0,0,0,0,0,0,0,0,0,0,0,0,0,0,0,0,0,0,0,0,0,0,0,0,0,0,0,0,0,0,0,0,0,0,0,0,0,0,0,0,0,0,0,0,0,0,0,0,0,0,0,0,0,0,0,0,0,0,0,0,0,0,0,0,0,0,0,0,0,0,0,0,0,0,0,0,0,0,0,0,0,0,0,0,0,0,0,0,0,0,0,0,0,0,0,0,0,0,0,0,0,0,0,0,0,0,0,0,0,0,0,0,0,0,0,0,0,0,0,0,0,0,0,0,0,0,0,0,0,0,0,0,0,0,0,0,0,0,0,0,0,0,0,0,0,0,0,0,0,0,0,0,0,0,0,0,0,0,0,0,0,0,0,0,0,0,0,0,0,0,0,0,0,0,0,0,0,0,0,0,0,0,0,0,0,0,0,0,0,0,0,0,0,0,0,0,0,0,0,0,0,0,0,0,0,0,0,0,0,0,0,0,0,0,0,0,0,0,0,0,0,0,0,0,0,0,0,0,0,0,0,0,0,0,0,0,0,0,0,0,0,0,0,0,0,0,0,0,0,0,0,0,0,0,0,0,0,0,0,0,0,0,0,0,0,0,0,0,0,0,0,0,0,0,0,0,0,0,0,0,0,0,0,0,0,0,0,0,0,0,0,0,0,0,0,0,0,0,0,0,0,0,0,0,0,0,0,0,0,0,0,0,0,0,0,0,0,0,0,0,0,0,0,0,0,0,0,0,0,0,0,0,0,0,0,0,0,0,0,0,0,0,0,0,0,0,0,0,0,0,0,0,0,0,0,0,0,0,0,0,0,0,0,0,0,0,0,0,0,0,0,0,0,0,0,0,0,0,0,0,0,0,0,0,0,0,0,0,0,0,0,0,0,0,0,0,0,0,0,0,0,0,0,0,0,0,0,0,0,0,0,0,0,0,0,0,0,0,0,0,0,0,0,0,0,0,0,0,0,0,0,0,0,0,0,0,0,0,0,0,0,0,0,0,0,0,0,0,0,0,0,0,0,0,0,0,0,0,0,0,0,0,0,0,0,0,0,0,0,0,0,0,0,0,0,0,0,0,0,0,0,0,0,0,0,0,0,0,0,0,0,0,0,0,0,0,0,0,0,0,0,0,0,0,0,0,0,0,0,0,0,0,0,0,0,0,0,0,0,0,0,0,0,0,0,0,0,0,0,0,0,0,0,0,0,0,0,0,0,0,0,0,0,0,0,0,0,0,0,0,0,0,0,0,0,0,0,0,0,0,0,0,0,0,0,0,0,0,0,0,0,0,0,0,0,0,0,0,0,0,0,0,0,0,0,0,0,0,0,0,0,0,0,0,0,0,0,0,0,0,0,0,0,0,0,0,0,0,0,0,0,0,0,0,0,0,0,0,0,0,0,0,0,0,0,0,0,0,0,0,0,0,0,0,0,0,0,0,0,0,0,0,0,0,0,0,0,0,0,0,0,0,0,0,0,0,0,0,0,0,0,0,0,0,0,0,0,0,0,0,0,0,0,0,0,0,0,0,0,0,0,0,0,0,0,0,0,0,0,0,0,0,0,0,0,0,0,0,0,0,0,0,0,0,0,0,0,0,0,0,0,0,0,0,0,0,0,0,0,0,0,0,0,0,0,0,0,0,0,0,0,0,0,0,0,0,0,0,0,0,0,0,0,0,0,0,0,0,0,0,0,0,0,0,0,0,0,0,0,0,0,0,0,0,0,0,0,0,0,0,0,0,0,0,0,0,0,0,0,0,0,0,0,0,0,0,0,0,0,0,0,0,0,0,0,0,0,0,0,0,0,0,0,0,0,0,0,0,0,0,0,0,0,0,0,0,0,0,0,0,0,0,0,0,0,0,0,0,0,0,0,0,0,0,0,0,0,0,0,0,0,0,0,0,0,0,0,0,0,0,0,0,0,0,0,0,0,0,0,0,0,0,0,0,0,0,0,0,0,0,0,0,0,0,0,0,0,0,0,0,0,0,0,0,0,0,0,0,0,0,0,0,0,0,0,0,0,0,0,0,0,0,0,0,0,0,0,0,0,0,0,0,0,0,0,0,0,0,0,0,0,0,0,0,0,0,0,0,0,0,0,0,0,0,0,0,0,0,0,0,0,0,0,0,0,0,0,0,0,0,0,0,0,0,0,0,0,0,0,0,0,0,0,0,0,0,0,0,0,0,0,0,0,0,0,0,0,0,0,0,0,0,0,0,0,0,0,0,0,0,0,0,0,0,0,0,0,0,0,0,0,0,0,0,0,0,0,0,0,0,0,0,0,0,0,0,0,0,0,0,0,0,0,0,0,0,0,0,0,0,0,0,0,0,0,0,0,0,0,0,0,0,0,0,0,0,0,0,0,0,0,0,0,0,0,0,0,0,0,0,0,0,0,0,0,0,0,0,0,0,0,0,0,0,0,0,0,0,0,0,0,0,0,0,0,0,0,0,0,0,0,0,0,0,0,0,0,0,0,0,0,0,0,0,0,0,0,0,0,0,0,0,0,0,0,0,0,0,0,0,0,0,0,0,0,0,0,0,0,0,0,0,0,0,0,0,0,0,0,0,0,0,0,0,0,0,0,0,0,0,0,0,0,0,0,0,0,0,0,0,0,0,0,0,0,0,0,0,0,0,0,0,0,0,0,0,0,0,0,0,0,0,0],"trees":[{"base_weights":[8.4162515E-1,-1.4665112E1,2.1477573E1,-2.3973682E1,-7.187128E0,1.1362541E1,3.2631607E1,-1.4534871E-1,-9.15818E-2,-4.9642947E-2,-4.50525E-3,3.2660477E-2,7.887463E-2,1.3137463E-1,1.9557178E-1],"categories":[],"categories_nodes":[],"categories_segments":[],"categories_sizes":[],"default_left":[0,0,0,0,0,0,0,0,0,0,0,0,0,0,0],"id":0,"left_children":[1,3,5,7,9,11,13,-1,-1,-1,-1,-1,-1,-1,-1],"loss_changes":[1.19351945E5,1.4466605E4,1.7288188E4,1.6214297E3,2.0618916E3,1.6370596E3,1.0025156E3,0E0,0E0,0E0,0E0,0E0,0E0,0E0,0E0],"parents":[2147483647,0,0,1,1,2,2,3,3,4,4,5,5,6,6],"right_children":[2,4,6,8,10,12,14,-1,-1,-1,-1,-1,-1,-1,-1],"split_conditions":[2.720944E-2,-8.510424E-1,9.0546125E-1,-1.2208326E0,-3.8880458E-1,3.969997E-1,1.367699E0,-1.4534871E-1,-9.15818E-2,-4.9642947E-2,-4.50525E-3,3.2660477E-2,7.887463E-2,1.3137463E-1,1.9557178E-1],"split_indices":[21,21,21,21,21,21,21,0,0,0,0,0,0,0,0],"split_type":[0,0,0,0,0,0,0,0,0,0,0,0,0,0,0],"sum_hessian":[3.69E2,2.11E2,1.58E2,9.2E1,1.19E2,8.5E1,7.3E1,4.4E1,4.8E1,8.2E1,3.7E1,4.3E1,4.2E1,4.2E1,3.1E1],"tree_param":{"num_deleted":"0","num_feature":"41","num_nodes":"15","size_leaf_vector":"1"}},{"base_weights":[1.2766695E0,-1.4360109E1,2.102589E1,-2.2746351E1,-6.7683463E0,9.921686E0,3.0731476E1,-1.4192407E-1,-8.983782E-2,-4.74618E-2,-1.4831892E-3,3.275595E-2,6.885121E-2,1.2069334E-1,1.823843E-1],"categories":[],"categories_nodes":[],"categories_segments":[],"categories_sizes":[],"default_left":[0,0,0,0,0,0,0,0,0,0,0,0,0,0,0],"id":1,"left_children":[1,3,5,7,9,11,13,-1,-1,-1,-1,-1,-1,-1,-1],"loss_changes":[1.13942016E5,1.2792602E4,1.693682E4,1.5704805E3,1.9462954E3,8.3416895E2,1.4662109E3,0E0,0E0,0E0,0E0,0E0,0E0,0E0,0E0],"parents":[2147483647,0,0,1,1,2,2,3,3,4,4,5,5,6,6],"right_children":[2,4,6,8,10,12,14,-1,-1,-1,-1,-1,-1,-1,-1],"split_conditions":[5.2241033E-1,2.3854582E-1,7.674303E-1,1.0657371E-1,4.1384462E-1,6.4691234E-1,8.804781E-1,-1.4192407E-1,-8.983782E-2,-4.74618E-2,-1.4831892E-3,3.275595E-2,6.885121E-2,1.2069334E-1,1.823843E-1],"split_indices":[13,13,13,13,13,13,13,0,0,0,0,0,0,0,0],"split_type":[0,0,0,0,0,0,0,0,0,0,0,0,0,0,0],"sum_hessian":[3.65E2,2.04E2,1.61E2,9.5E1,1.09E2,7.7E1,8.4E1,3.9E1,5.6E1,7.6E1,3.3E1,4.4E1,3.3E1,4.4E1,4E1],"tree_param":{"num_deleted":"0","num_feature":"41","num_nodes":"15","size_leaf_vector":"1"}},{"base_weights":[7.577143E-1,-9.665282E0,2.497499E1,-1.561262E1,2.377476E0,1.4007717E1,3.0293362E1,-1.0568619E-1,-4.763192E-2,-3.617773E-2,5.0690025E-2,2.9397244E-2,1.0389054E-1,1.17498726E-1,1.7499031E-1],"categories":[],"categories_nodes":[],"categories_segments":[],"categories_sizes":[],"default_left":[0,0,0,0,0,0,0,0,0,0,0,0,0,0,0],"id":2,"left_children":[1,3,5,7,9,11,13,-1,-1,-1,-1,-1,-1,-1,-1],"loss_changes":[9.3127336E4,1.8559424E4,5.603578E3,5.398918E3,6.6385454E3,1.943606E3,6.590781E2,0E0,0E0,0E0,0E0,0E0,0E0,0E0,0E0],"parents":[2147483647,0,0,1,1,2,2,3,3,4,4,5,5,6,6],"right_children":[2,4,6,8,10,12,14,-1,-1,-1,-1,-1,-1,-1,-1],"split_conditions":[1.00333336E2,8.1333336E1,-6E0,1E0,-2E0,1.12333336E2,1.2E2,-1.0568619E-1,-4.763192E-2,-3.617773E-2,5.0690025E-2,2.9397244E-2,1.0389054E-1,1.17498726E-1,1.7499031E-1],"split_indices":[0,0,9,9,9,0,2,0,0,0,0,0,0,0,0],"split_type":[0,0,0,0,0,0,0,0,0,0,0,0,0,0,0],"sum_hessian":[3.65E2,2.56E2,1.09E2,1.71E2,8.5E1,3.8E1,7.1E1,8.7E1,8.4E1,3.8E1,4.7E1,1.9E1,1.9E1,3.4E1,3.7E1],"tree_param":{"num_deleted":"0","num_feature":"41","num_nodes":"15","size_leaf_vector":"1"}},{"base_weights":[-4.900893E-1,-1.7498999E1,1.7661766E1,-1.5381782E-1,-1.2484981E1,8.127598E0,3.0073841E1,-8.405365E-2,-3.90274E-2,8.546111E-3,6.675599E-2,1.07006565E-1,1.7639345E-1],"categories":[],"categories_nodes":[],"categories_segments":[],"categories_sizes":[],"default_left":[0,0,0,0,0,0,0,0,0,0,0,0,0],"id":3,"left_children":[1,3,5,-1,7,9,11,-1,-1,-1,-1,-1,-1],"loss_changes":[1.1423556E5,1.1913383E4,2.0674691E4,0E0,2.5996738E3,3.4336406E3,1.9373516E3,0E0,0E0,0E0,0E0,0E0,0E0],"parents":[2147483647,0,0,1,1,2,2,4,4,5,5,6,6],"right_children":[2,4,6,-1,8,10,12,-1,-1,-1,-1,-1,-1],"split_conditions":[8.424237E1,6.575644E1,1.0541074E2,-1.5381782E-1,1E0,-1E0,1.1311667E2,-8.405365E-2,-3.90274E-2,8.546111E-3,6.675599E-2,1.07006565E-1,1.7639345E-1],"split_indices":[11,11,11,0,9,9,11,0,0,0,0,0,0],"split_type":[0,0,0,0,0,0,0,0,0,0,0,0,0],"sum_hessian":[3.66E2,1.89E2,1.77E2,4.9E1,1.4E2,1.02E2,7.5E1,7E1,7E1,4.7E1,5.5E1,3.2E1,4.3E1],"tree_param":{"num_deleted":"0","num_feature":"41","num_nodes":"13","size_leaf_vector":"1"}},{"base_weights":[-1.4955143E0,-1.5731643E1,2.019621E1,-2.3841156E1,-8.631641E0,9.453231E0,3.082668E1,-1.4927809E-1,-9.421751E-2,-5.9711494E-2,-1.7909693E-2,2.9059337E-2,7.136014E-2,1.1816508E-1,1.830556E-1],"categories":[],"categories_nodes":[],"categories_segments":[],"categories_sizes":[],"default_left":[0,0,0,0,0,0,0,0,0,0,0,0,0,0,0],"id":4,"left_children":[1,3,5,7,9,11,13,-1,-1,-1,-1,-1,-1,-1,-1],"loss_changes":[1.2075882E5,1.3160488E4,1.7098484E4,2.1268242E3,2.0632842E3,1.2278223E3,1.4434844E3,0E0,0E0,0E0,0E0,0E0,0E0,0E0,0E0],"parents":[2147483647,0,0,1,1,2,2,3,3,4,4,5,5,6,6],"right_children":[2,4,6,8,10,12,14,-1,-1,-1,-1,-1,-1,-1,-1],"split_conditions":[-1.901434E-2,-8.9726615E-1,8.130137E-1,-1.2670563E0,-4.8125213E-1,3.507759E-1,1.2752515E0,-1.4927809E-1,-9.421751E-2,-5.9711494E-2,-1.7909693E-2,2.9059337E-2,7.136014E-2,1.1816508E-1,1.830556E-1],"split_indices":[21,21,21,21,21,21,21,0,0,0,0,0,0,0,0],"split_type":[0,0,0,0,0,0,0,0,0,0,0,0,0,0,0],"sum_hessian":[3.87E2,2.34E2,1.53E2,1.07E2,1.27E2,7.8E1,7.5E1,4.4E1,6.3E1,7.5E1,5.2E1,4.7E1,3.1E1,3.8E1,3.7E1],"tree_param":{"num_deleted":"0","num_feature":"41","num_nodes":"15","size_leaf_vector":"1"}},{"base_weights":[-9.903344E-1,-1.5953655E1,2.1049282E1,-2.4366064E1,-8.290074E0,1.0543352E1,3.184717E1,-1.532001E-1,-9.67103E-2,-5.7330344E-2,-1.799407E-2,2.9740963E-2,7.4061446E-2,1.1961341E-1,1.8453248E-1],"categories":[],"categories_nodes":[],"categories_segments":[],"categories_sizes":[],"default_left":[0,0,0,0,0,0,0,0,0,0,0,0,0,0,0],"id":5,"left_children":[1,3,5,7,9,11,13,-1,-1,-1,-1,-1,-1,-1,-1],"loss_changes":[1.1741328E5,1.3247148E4,1.5642887E4,1.9417617E3,1.6084736E3,1.3042578E3,1.0102578E3,0E0,0E0,0E0,0E0,0E0,0E0,0E0,0E0],"parents":[2147483647,0,0,1,1,2,2,3,3,4,4,5,5,6,6],"right_children":[2,4,6,8,10,12,14,-1,-1,-1,-1,-1,-1,-1,-1],"split_conditions":[-1.901434E-2,-8.9726615E-1,8.592375E-1,-1.3132802E0,-4.8125213E-1,3.507759E-1,1.3214753E0,-1.532001E-1,-9.67103E-2,-5.7330344E-2,-1.799407E-2,2.9740963E-2,7.4061446E-2,1.1961341E-1,1.8453248E-1],"split_indices":[21,21,21,21,21,21,21,0,0,0,0,0,0,0,0],"split_type":[0,0,0,0,0,0,0,0,0,0,0,0,0,0,0],"sum_hessian":[3.52E2,2.1E2,1.42E2,9.8E1,1.12E2,7.4E1,6.8E1,3.9E1,5.9E1,6.5E1,4.7E1,3.8E1,3.6E1,3.1E1,3.7E1],"tree_param":{"num_deleted":"0","num_feature":"41","num_nodes":"15","size_leaf_vector":"1"}},{"base_weights":[1.5925665E-1,-1.6033327E1,2.0185478E1,-2.6964535E1,-9.244449E0,9.80356E0,3.0451622E1,-1.617162E-1,-1.04727335E-1,-6.4210705E-2,-1.8658008E-2,3.0077508E-2,7.072239E-2,1.2068633E-1,1.8089025E-1],"categories":[],"categories_nodes":[],"categories_segments":[],"categories_sizes":[],"default_left":[0,0,0,0,0,0,0,0,0,0,0,0,0,0,0],"id":6,"left_children":[1,3,5,7,9,11,13,-1,-1,-1,-1,-1,-1,-1,-1],"loss_changes":[1.2257724E5,1.4993371E4,1.739521E4,1.1760781E3,2.5138955E3,1.2503457E3,1.2606953E3,0E0,0E0,0E0,0E0,0E0,0E0,0E0,0E0],"parents":[2147483647,0,0,1,1,2,2,3,3,4,4,5,5,6,6],"right_children":[2,4,6,8,10,12,14,-1,-1,-1,-1,-1,-1,-1,-1],"split_conditions":[5.054781E-1,1.7181274E-1,7.674303E-1,6.822709E-2,3.436255E-1,6.4691234E-1,8.894422E-1,-1.617162E-1,-1.04727335E-1,-6.4210705E-2,-1.8658008E-2,3.0077508E-2,7.072239E-2,1.2068633E-1,1.8089025E-1],"split_indices":[13,13,13,13,13,13,13,0,0,0,0,0,0,0,0],"split_type":[0,0,0,0,0,0,0,0,0,0,0,0,0,0,0],"sum_hessian":[3.74E2,2.07E2,1.67E2,7.7E1,1.3E2,8.5E1,8.2E1,3.6E1,4.1E1,7.7E1,5.3E1,4.8E1,3.7E1,4.4E1,3.8E1],"tree_param":{"num_deleted":"0","num_feature":"41","num_nodes":"15","size_leaf_vector":"1"}},{"base_weights":[-6.926149E-2,-1.5544935E1,2.0368034E1,-2.561339E1,-8.422102E0,1.0443493E1,3.092527E1,-1.585431E-1,-9.853217E-2,-6.156677E-2,-1.8614728E-2,2.7918758E-2,7.353358E-2,1.2416387E-1,1.8671903E-1],"categories":[],"categories_nodes":[],"categories_segments":[],"categories_sizes":[],"default_left":[0,0,0,0,0,0,0,0,0,0,0,0,0,0,0],"id":7,"left_children":[1,3,5,7,9,11,13,-1,-1,-1,-1,-1,-1,-1,-1],"loss_changes":[1.1670593E5,1.4611887E4,1.5992719E4,1.8209336E3,2.2042832E3,1.5866611E3,1.0861797E3,0E0,0E0,0E0,0E0,0E0,0E0,0E0,0E0],"parents":[2147483647,0,0,1,1,2,2,3,3,4,4,5,5,6,6],"right_children":[2,4,6,8,10,12,14,-1,-1,-1,-1,-1,-1,-1,-1],"split_conditions":[-1.901434E-2,-9.434899E-1,8.592375E-1,-1.359504E0,-5.274759E-1,3.507759E-1,1.367699E0,-1.585431E-1,-9.853217E-2,-6.156677E-2,-1.8614728E-2,2.7918758E-2,7.353358E-2,1.2416387E-1,1.8671903E-1],"split_indices":[21,21,21,21,21,21,21,0,0,0,0,0,0,0,0],"split_type":[0,0,0,0,0,0,0,0,0,0,0,0,0,0,0],"sum_hessian":[3.65E2,2.08E2,1.57E2,8.4E1,1.24E2,8.3E1,7.4E1,3.7E1,4.7E1,6.6E1,5.8E1,4.1E1,4.2E1,4.3E1,3.1E1],"tree_param":{"num_deleted":"0","num_feature":"41","num_nodes":"15","size_leaf_vector":"1"}},{"base_weights":[1.0391678E0,-1.4689121E1,2.2374453E1,-2.5217297E1,-7.4903417E0,1.3159922E1,3.1973679E1,-1.5579413E-1,-9.960351E-2,-5.1112317E-2,-2.7012092E-3,3.9112844E-2,8.812654E-2,1.2946036E-1,1.8972619E-1],"categories":[],"categories_nodes":[],"categories_segments":[],"categories_sizes":[],"default_left":[0,0,0,0,0,0,0,0,0,0,0,0,0,0,0],"id":8,"left_children":[1,3,5,7,9,11,13,-1,-1,-1,-1,-1,-1,-1,-1],"loss_changes":[1.2180104E5,1.5445984E4,1.2757547E4,1.3765234E3,2.3951157E3,1.6658604E3,6.905547E2,0E0,0E0,0E0,0E0,0E0,0E0,0E0,0E0],"parents":[2147483647,0,0,1,1,2,2,3,3,4,4,5,5,6,6],"right_children":[2,4,6,8,10,12,14,-1,-1,-1,-1,-1,-1,-1,-1],"split_conditions":[5.363546E-1,2.0468128E-1,8.0876493E-1,7.669323E-2,4.0438247E-1,6.942231E-1,9.078685E-1,-1.5579413E-1,-9.960351E-2,-5.1112317E-2,-2.7012092E-3,3.9112844E-2,8.812654E-2,1.2946036E-1,1.8972619E-1],"split_indices":[13,13,13,13,13,13,13,0,0,0,0,0,0,0,0],"split_type":[0,0,0,0,0,0,0,0,0,0,0,0,0,0,0],"sum_hessian":[3.59E2,2.07E2,1.52E2,8.2E1,1.25E2,8E1,7.2E1,3.4E1,4.8E1,8.9E1,3.6E1,3.9E1,4.1E1,4.1E1,3.1E1],"tree_param":{"num_deleted":"0","num_feature":"41","num_nodes":"15","size_leaf_vector":"1"}},{"base_weights":[6.5477115E-1,-1.3480401E1,2.1711754E1,-2.1852251E1,-4.7914486E0,1.0918063E1,3.179483E1,-1.4549942E-1,-8.4045954E-2,-3.9802875E-2,2.643998E-3,3.56317E-2,7.2580114E-2,1.1899606E-1,1.7937523E-1],"categories":[],"categories_nodes":[],"categories_segments":[],"categories_sizes":[],"default_left":[0,0,0,0,0,0,0,0,0,0,0,0,0,0,0],"id":9,"left_children":[1,3,5,7,9,11,13,-1,-1,-1,-1,-1,-1,-1,-1],"loss_changes":[1.1190836E5,1.6144355E4,1.5718242E4,3.1654766E3,1.9173762E3,8.191133E2,7.7460156E2,0E0,0E0,0E0,0E0,0E0,0E0,0E0,0E0],"parents":[2147483647,0,0,1,1,2,2,3,3,4,4,5,5,6,6],"right_children":[2,4,6,8,10,12,14,-1,-1,-1,-1,-1,-1,-1,-1],"split_conditions":[5.363546E-1,2.564741E-1,7.938247E-1,1.0657371E-1,4.252988E-1,6.628486E-1,8.894422E-1,-1.4549942E-1,-8.4045954E-2,-3.9802875E-2,2.643998E-3,3.56317E-2,7.2580114E-2,1.1899606E-1,1.7937523E-1],"split_indices":[13,13,13,13,13,13,13,0,0,0,0,0,0,0,0],"split_type":[0,0,0,0,0,0,0,0,0,0,0,0,0,0,0],"sum_hessian":[3.72E2,2.23E2,1.49E2,1.12E2,1.11E2,7.4E1,7.5E1,4.2E1,7E1,6.9E1,4.2E1,3.9E1,3.5E1,3E1,4.5E1],"tree_param":{"num_deleted":"0","num_feature":"41","num_nodes":"15","size_leaf_vector":"1"}},{"base_weights":[-1.3095264E0,-1.4944893E1,1.9244514E1,-2.5706253E1,-8.149572E0,9.248922E0,2.9786448E1,-1.6093615E-1,-1.0201229E-1,-6.0312003E-2,-1.8071825E-2,2.8984146E-2,7.324706E-2,1.1540018E-1,1.7706516E-1],"categories":[],"categories_nodes":[],"categories_segments":[],"categories_sizes":[],"default_left":[0,0,0,0,0,0,0,0,0,0,0,0,0,0,0],"id":10,"left_children":[1,3,5,7,9,11,13,-1,-1,-1,-1,-1,-1,-1,-1],"loss_changes":[1.0959494E5,1.6748898E4,1.586766E4,1.7539492E3,2.5135527E3,1.3673047E3,1.1661562E3,0E0,0E0,0E0,0E0,0E0,0E0,0E0,0E0],"parents":[2147483647,0,0,1,1,2,2,3,3,4,4,5,5,6,6],"right_children":[2,4,6,8,10,12,14,-1,-1,-1,-1,-1,-1,-1,-1],"split_conditions":[-1.901434E-2,-9.434899E-1,8.130137E-1,-1.4057277E0,-5.274759E-1,3.507759E-1,1.2752515E0,-1.6093615E-1,-1.0201229E-1,-6.0312003E-2,-1.8071825E-2,2.8984146E-2,7.324706E-2,1.1540018E-1,1.7706516E-1],"split_indices":[21,21,21,21,21,21,21,0,0,0,0,0,0,0,0],"split_type":[0,0,0,0,0,0,0,0,0,0,0,0,0,0,0],"sum_hessian":[3.87E2,2.33E2,1.54E2,8.8E1,1.45E2,8.1E1,7.3E1,3.5E1,5.3E1,7.6E1,6.9E1,5.2E1,2.9E1,3.8E1,3.5E1],"tree_param":{"num_deleted":"0","num_feature":"41","num_nodes":"15","size_leaf_vector":"1"}},{"base_weights":[-5.935067E-1,-1.3964169E1,2.0066599E1,-2.2551502E1,-7.167396E0,9.460271E0,2.9440495E1,-1.4382541E-1,-8.824531E-2,-4.8110325E-2,-4.1706185E-3,2.8108692E-2,6.432985E-2,1.0786215E-1,1.7085397E-1],"categories":[],"categories_nodes":[],"categories_segments":[],"categories_sizes":[],"default_left":[0,0,0,0,0,0,0,0,0,0,0,0,0,0,0],"id":11,"left_children":[1,3,5,7,9,11,13,-1,-1,-1,-1,-1,-1,-1,-1],"loss_changes":[1.01937195E5,1.2735891E4,1.3839793E4,1.9466875E3,1.9686191E3,7.7427246E2,1.3264297E3,0E0,0E0,0E0,0E0,0E0,0E0,0E0,0E0],"parents":[2147483647,0,0,1,1,2,2,3,3,4,4,5,5,6,6],"right_children":[2,4,6,8,10,12,14,-1,-1,-1,-1,-1,-1,-1,-1],"split_conditions":[5.2241033E-1,2.2111554E-1,7.674303E-1,9.611554E-2,4.0438247E-1,6.314741E-1,8.700199E-1,-1.4382541E-1,-8.824531E-2,-4.8110325E-2,-4.1706185E-3,2.8108692E-2,6.432985E-2,1.0786215E-1,1.7085397E-1],"split_indices":[13,13,13,13,13,13,13,0,0,0,0,0,0,0,0],"split_type":[0,0,0,0,0,0,0,0,0,0,0,0,0,0,0],"sum_hessian":[3.65E2,2.22E2,1.43E2,9.6E1,1.26E2,6.9E1,7.4E1,3.8E1,5.8E1,9E1,3.6E1,3.5E1,3.4E1,3.2E1,4.2E1],"tree_param":{"num_deleted":"0","num_feature":"41","num_nodes":"15","size_leaf_vector":"1"}},{"base_weights":[-4.9733824E-1,-1.5650879E1,1.9030588E1,-2.4490574E1,-8.610055E0,8.424308E0,2.9148752E1,-1.478656E-1,-9.614006E-2,-5.795905E-2,-2.0552365E-2,2.505318E-2,6.1047453E-2,1.0807205E-1,1.6801597E-1],"categories":[],"categories_nodes":[],"categories_segments":[],"categories_sizes":[],"default_left":[0,0,0,0,0,0,0,0,0,0,0,0,0,0,0],"id":12,"left_children":[1,3,5,7,9,11,13,-1,-1,-1,-1,-1,-1,-1,-1],"loss_changes":[1.0564462E5,1.2071703E4,1.6231406E4,1.1920898E3,1.4397676E3,8.898237E2,1.1711094E3,0E0,0E0,0E0,0E0,0E0,0E0,0E0,0E0],"parents":[2147483647,0,0,1,1,2,2,3,3,4,4,5,5,6,6],"right_children":[2,4,6,8,10,12,14,-1,-1,-1,-1,-1,-1,-1,-1],"split_conditions":[-6.523812E-2,-9.434899E-1,7.667899E-1,-1.3132802E0,-5.274759E-1,3.045521E-1,1.2290277E0,-1.478656E-1,-9.614006E-2,-5.795905E-2,-2.0552365E-2,2.505318E-2,6.1047453E-2,1.0807205E-1,1.6801597E-1],"split_indices":[21,21,21,21,21,21,21,0,0,0,0,0,0,0,0],"split_type":[0,0,0,0,0,0,0,0,0,0,0,0,0,0,0],"sum_hessian":[3.53E2,1.99E2,1.54E2,8.6E1,1.13E2,7.7E1,7.7E1,3.9E1,4.7E1,6.6E1,4.7E1,4.3E1,3.4E1,3.3E1,4.4E1],"tree_param":{"num_deleted":"0","num_feature":"41","num_nodes":"15","size_leaf_vector":"1"}},{"base_weights":[1.869802E-1,-1.3400141E1,2.1830223E1,-2.1656492E1,-5.8163304E0,1.1031835E1,3.0372234E1,-1.4424443E-1,-8.563074E-2,-4.331883E-2,5.585182E-5,3.3131734E-2,7.2075166E-2,1.2276575E-1,1.7968906E-1],"categories":[],"categories_nodes":[],"categories_segments":[],"categories_sizes":[],"default_left":[0,0,0,0,0,0,0,0,0,0,0,0,0,0,0],"id":13,"left_children":[1,3,5,7,9,11,13,-1,-1,-1,-1,-1,-1,-1,-1],"loss_changes":[1.0674831E5,1.3697398E4,1.2222773E4,2.4427773E3,1.9791384E3,7.672427E2,6.9875E2,0E0,0E0,0E0,0E0,0E0,0E0,0E0,0E0],"parents":[2147483647,0,0,1,1,2,2,3,3,4,4,5,5,6,6],"right_children":[2,4,6,8,10,12,14,-1,-1,-1,-1,-1,-1,-1,-1],"split_conditions":[5.363546E-1,2.3854582E-1,7.938247E-1,9.611554E-2,4.1384462E-1,6.628486E-1,8.994024E-1,-1.4424443E-1,-8.563074E-2,-4.331883E-2,5.585182E-5,3.3131734E-2,7.2075166E-2,1.2276575E-1,1.7968906E-1],"split_indices":[13,13,13,13,13,13,13,0,0,0,0,0,0,0,0],"split_type":[0,0,0,0,0,0,0,0,0,0,0,0,0,0,0],"sum_hessian":[3.59E2,2.21E2,1.38E2,1.04E2,1.17E2,6.3E1,7.5E1,3.6E1,6.8E1,7.8E1,3.9E1,3E1,3.3E1,4.2E1,3.3E1],"tree_param":{"num_deleted":"0","num_feature":"41","num_nodes":"15","size_leaf_vector":"1"}},{"base_weights":[3.1480306E-1,-1.3848033E1,1.9916811E1,-2.2553003E1,-6.7483873E0,9.953884E0,3.000786E1,-1.4989237E-1,-8.932577E-2,-4.6801355E-2,-5.8735046E-3,2.9738162E-2,6.872516E-2,1.2130578E-1,1.8009229E-1],"categories":[],"categories_nodes":[],"categories_segments":[],"categories_sizes":[],"default_left":[0,0,0,0,0,0,0,0,0,0,0,0,0,0,0],"id":14,"left_children":[1,3,5,7,9,11,13,-1,-1,-1,-1,-1,-1,-1,-1],"loss_changes":[9.994262E4,1.2597617E4,1.4563621E4,2.1422188E3,1.6905645E3,1.0265283E3,7.782031E2,0E0,0E0,0E0,0E0,0E0,0E0,0E0,0E0],"parents":[2147483647,0,0,1,1,2,2,3,3,4,4,5,5,6,6],"right_children":[2,4,6,8,10,12,14,-1,-1,-1,-1,-1,-1,-1,-1],"split_conditions":[5.2241033E-1,2.2111554E-1,7.788845E-1,8.615538E-2,4.0438247E-1,6.4691234E-1,8.994024E-1,-1.4989237E-1,-8.932577E-2,-4.6801355E-2,-5.8735046E-3,2.9738162E-2,6.872516E-2,1.2130578E-1,1.8009229E-1],"split_indices":[13,13,13,13,13,13,13,0,0,0,0,0,0,0,0],"split_type":[0,0,0,0,0,0,0,0,0,0,0,0,0,0,0],"sum_hessian":[3.56E2,2.07E2,1.49E2,9.1E1,1.16E2,7.7E1,7.2E1,3.1E1,6E1,7.8E1,3.8E1,4E1,3.7E1,4.2E1,3E1],"tree_param":{"num_deleted":"0","num_feature":"41","num_nodes":"15","size_leaf_vector":"1"}},{"base_weights":[-9.434316E-1,-1.539116E1,1.802788E1,-2.4594557E1,-8.345356E0,8.624763E0,2.768565E1,-1.5470558E-1,-1.0008725E-1,-5.9030574E-2,-2.120644E-2,2.4138616E-2,6.273809E-2,1.03646114E-1,1.6324645E-1],"categories":[],"categories_nodes":[],"categories_segments":[],"categories_sizes":[],"default_left":[0,0,0,0,0,0,0,0,0,0,0,0,0,0,0],"id":15,"left_children":[1,3,5,7,9,11,13,-1,-1,-1,-1,-1,-1,-1,-1],"loss_changes":[1.014196E5,1.3190551E4,1.4034383E4,1.3501992E3,1.6246191E3,1.1213594E3,1.3130039E3,0E0,0E0,0E0,0E0,0E0,0E0,0E0,0E0],"parents":[2147483647,0,0,1,1,2,2,3,3,4,4,5,5,6,6],"right_children":[2,4,6,8,10,12,14,-1,-1,-1,-1,-1,-1,-1,-1],"split_conditions":[4.935259E-1,1.8824701E-1,7.559761E-1,6.822709E-2,3.436255E-1,6.314741E-1,8.570717E-1,-1.5470558E-1,-1.0008725E-1,-5.9030574E-2,-2.120644E-2,2.4138616E-2,6.273809E-2,1.03646114E-1,1.6324645E-1],"split_indices":[13,13,13,13,13,13,13,0,0,0,0,0,0,0,0],"split_type":[0,0,0,0,0,0,0,0,0,0,0,0,0,0,0],"sum_hessian":[3.66E2,2.08E2,1.58E2,8.8E1,1.2E2,8.2E1,7.6E1,3.2E1,5.6E1,6.3E1,5.7E1,4.4E1,3.8E1,3.6E1,4E1],"tree_param":{"num_deleted":"0","num_feature":"41","num_nodes":"15","size_leaf_vector":"1"}},{"base_weights":[-3.5284108E-1,-1.0906368E1,1.9039864E1,-2.189024E1,-5.376282E0,2.9305356E0,2.2880903E1,-1.4573646E-1,-8.29163E-2,-4.392738E-2,2.6951253E-2,4.0945347E-2,-2.2637993E-2,5.627795E-2,1.404492E-1],"categories":[],"categories_nodes":[],"categories_segments":[],"categories_sizes":[],"default_left":[0,0,0,0,0,0,0,0,0,0,0,0,0,0,0],"id":16,"left_children":[1,3,5,7,9,11,13,-1,-1,-1,-1,-1,-1,-1,-1],"loss_changes":[7.142876E4,1.3478623E4,7.4638047E3,1.8989023E3,5.712305E3,1.0956743E3,5.3429883E3,0E0,0E0,0E0,0E0,0E0,0E0,0E0,0E0],"parents":[2147483647,0,0,1,1,2,2,3,3,4,4,5,5,6,6],"right_children":[2,4,6,8,10,12,14,-1,-1,-1,-1,-1,-1,-1,-1],"split_conditions":[9.16729E1,7.116226E1,-1.2711865E-1,-1.1206895E-1,1.2E1,4.057625E2,1.14E2,-1.4573646E-1,-8.29163E-2,-4.392738E-2,2.6951253E-2,4.0945347E-2,-2.2637993E-2,5.627795E-2,1.404492E-1],"split_indices":[12,12,10,10,9,36,2,0,0,0,0,0,0,0,0],"split_type":[0,0,0,0,0,0,0,0,0,0,0,0,0,0,0],"sum_hessian":[3.45E2,2.24E2,1.21E2,7.3E1,1.51E2,2.4E1,9.7E1,2.7E1,4.6E1,1.15E2,3.6E1,1.4E1,1E1,3.2E1,6.5E1],"tree_param":{"num_deleted":"0","num_feature":"41","num_nodes":"15","size_leaf_vector":"1"}},{"base_weights":[-5.074879E-1,-1.441109E1,1.8816446E1,-2.2508434E1,-6.9088864E0,9.309383E0,2.8075212E1,-1.4851469E-1,-9.015106E-2,-4.9108163E-2,-1.1640469E-2,2.6300881E-2,6.396759E-2,1.0409425E-1,1.5790698E-1],"categories":[],"categories_nodes":[],"categories_segments":[],"categories_sizes":[],"default_left":[0,0,0,0,0,0,0,0,0,0,0,0,0,0,0],"id":17,"left_children":[1,3,5,7,9,11,13,-1,-1,-1,-1,-1,-1,-1,-1],"loss_changes":[9.887419E4,1.2674328E4,1.3014227E4,2.191332E3,1.4692598E3,9.709116E2,6.178633E2,0E0,0E0,0E0,0E0,0E0,0E0,0E0,0E0],"parents":[2147483647,0,0,1,1,2,2,3,3,4,4,5,5,6,6],"right_children":[2,4,6,8,10,12,14,-1,-1,-1,-1,-1,-1,-1,-1],"split_conditions":[5.054781E-1,2.2111554E-1,7.674303E-1,8.615538E-2,3.874502E-1,6.314741E-1,8.570717E-1,-1.4851469E-1,-9.015106E-2,-4.9108163E-2,-1.1640469E-2,2.6300881E-2,6.396759E-2,1.0409425E-1,1.5790698E-1],"split_indices":[13,13,13,13,13,13,13,0,0,0,0,0,0,0,0],"split_type":[0,0,0,0,0,0,0,0,0,0,0,0,0,0,0],"sum_hessian":[3.64E2,2.12E2,1.52E2,1E2,1.12E2,7.7E1,7.5E1,3.4E1,6.6E1,6.7E1,4.5E1,3.8E1,3.9E1,2.9E1,4.6E1],"tree_param":{"num_deleted":"0","num_feature":"41","num_nodes":"15","size_leaf_vector":"1"}},{"base_weights":[-8.290311E-1,-1.3441475E1,1.9445848E1,-2.1634811E1,-6.012275E0,9.938039E0,2.8048122E1,-1.4106086E-1,-8.531557E-2,-4.2206507E-2,-0E0,3.0288476E-2,6.53897E-2,1.0414438E-1,1.5962057E-1],"categories":[],"categories_nodes":[],"categories_segments":[],"categories_sizes":[],"default_left":[0,0,0,0,0,0,0,0,0,0,0,0,0,0,0],"id":18,"left_children":[1,3,5,7,9,11,13,-1,-1,-1,-1,-1,-1,-1,-1],"loss_changes":[9.666889E4,1.3908727E4,1.1282891E4,2.32225E3,1.823314E3,7.09228E2,7.423711E2,0E0,0E0,0E0,0E0,0E0,0E0,0E0,0E0],"parents":[2147483647,0,0,1,1,2,2,3,3,4,4,5,5,6,6],"right_children":[2,4,6,8,10,12,14,-1,-1,-1,-1,-1,-1,-1,-1],"split_conditions":[5.2241033E-1,2.3854582E-1,7.674303E-1,9.611554E-2,4.1384462E-1,6.4691234E-1,8.570717E-1,-1.4106086E-1,-8.531557E-2,-4.2206507E-2,-0E0,3.0288476E-2,6.53897E-2,1.0414438E-1,1.5962057E-1],"split_indices":[13,13,13,13,13,13,13,0,0,0,0,0,0,0,0],"split_type":[0,0,0,0,0,0,0,0,0,0,0,0,0,0,0],"sum_hessian":[3.74E2,2.31E2,1.43E2,1.08E2,1.23E2,7E1,7.3E1,4E1,6.8E1,8.7E1,3.6E1,3.4E1,3.6E1,3E1,4.3E1],"tree_param":{"num_deleted":"0","num_feature":"41","num_nodes":"15","size_leaf_vector":"1"}},{"base_weights":[3.8927276E-2,-1.3047916E1,2.0870256E1,-2.1076048E1,-4.642332E0,1.2782157E1,3.1182907E1,-1.3660271E-1,-8.1369996E-2,-3.8951058E-2,4.1641546E-3,3.7259698E-2,8.268567E-2,1.2302641E-1,1.7972393E-1],"categories":[],"categories_nodes":[],"categories_segments":[],"categories_sizes":[],"default_left":[0,0,0,0,0,0,0,0,0,0,0,0,0,0,0],"id":19,"left_children":[1,3,5,7,9,11,13,-1,-1,-1,-1,-1,-1,-1,-1],"loss_changes":[1.0032612E5,1.5042191E4,1.1025035E4,2.5374023E3,1.9640269E3,1.4027705E3,1.1149609E2,0E0,0E0,0E0,0E0,0E0,0E0,0E0,0E0],"parents":[2147483647,0,0,1,1,2,2,3,3,4,4,5,5,6,6],"right_children":[2,4,6,8,10,12,14,-1,-1,-1,-1,-1,-1,-1,-1],"split_conditions":[7.343322E-2,-7.585948E-1,9.9790883E-1,-1.2208326E0,-2.96357E-1,4.8944724E-1,1.4139228E0,-1.3660271E-1,-8.1369996E-2,-3.8951058E-2,4.1641546E-3,3.7259698E-2,8.268567E-2,1.2302641E-1,1.7972393E-1],"split_indices":[21,21,21,21,21,21,21,0,0,0,0,0,0,0,0],"split_type":[0,0,0,0,0,0,0,0,0,0,0,0,0,0,0],"sum_hessian":[3.64E2,2.24E2,1.4E2,1.13E2,1.11E2,8.1E1,5.9E1,4.5E1,6.8E1,7E1,4.1E1,3.6E1,4.5E1,3E1,2.9E1],"tree_param":{"num_deleted":"0","num_feature":"41","num_nodes":"15","size_leaf_vector":"1"}},{"base_weights":[-1.2375244E0,-1.5975557E1,1.7349316E1,-2.5828014E1,-9.777795E0,7.057814E0,2.6656088E1,-1.6143478E-1,-1.05939664E-1,-6.728469E-2,-2.6626946E-2,1.9303186E-2,5.6038097E-2,1.0241959E-1,1.6360046E-1],"categories":[],"categories_nodes":[],"categories_segments":[],"categories_sizes":[],"default_left":[0,0,0,0,0,0,0,0,0,0,0,0,0,0,0],"id":20,"left_children":[1,3,5,7,9,11,13,-1,-1,-1,-1,-1,-1,-1,-1],"loss_changes":[1.0464835E5,1.2483574E4,1.5793809E4,1.0326484E3,2.0423408E3,1.00714453E3,1.9265977E3,0E0,0E0,0E0,0E0,0E0,0E0,0E0,0E0],"parents":[2147483647,0,0,1,1,2,2,3,3,4,4,5,5,6,6],"right_children":[2,4,6,8,10,12,14,-1,-1,-1,-1,-1,-1,-1,-1],"split_conditions":[4.8256972E-1,1.5786852E-1,7.4302787E-1,5.1294822E-2,2.993028E-1,6.125498E-1,8.700199E-1,-1.6143478E-1,-1.05939664E-1,-6.728469E-2,-2.6626946E-2,1.9303186E-2,5.6038097E-2,1.0241959E-1,1.6360046E-1],"split_indices":[13,13,13,13,13,13,13,0,0,0,0,0,0,0,0],"split_type":[0,0,0,0,0,0,0,0,0,0,0,0,0,0,0],"sum_hessian":[3.78E2,2.11E2,1.67E2,7.9E1,1.32E2,8.1E1,8.6E1,2.8E1,5.1E1,7E1,6.2E1,4.8E1,3.3E1,4.7E1,3.9E1],"tree_param":{"num_deleted":"0","num_feature":"41","num_nodes":"15","size_leaf_vector":"1"}},{"base_weights":[-6.778631E-1,-1.4150344E1,1.8836546E1,-2.3580372E1,-8.435604E0,8.894395E0,2.8043793E1,-1.4667824E-1,-9.299231E-2,-5.7146695E-2,-1.9140847E-2,2.459004E-2,6.1570764E-2,1.08499736E-1,1.6712332E-1],"categories":[],"categories_nodes":[],"categories_segments":[],"categories_sizes":[],"default_left":[0,0,0,0,0,0,0,0,0,0,0,0,0,0,0],"id":21,"left_children":[1,3,5,7,9,11,13,-1,-1,-1,-1,-1,-1,-1,-1],"loss_changes":[9.912106E4,1.1603672E4,1.3579797E4,1.2646328E3,1.8635312E3,9.173291E2,1.2185078E3,0E0,0E0,0E0,0E0,0E0,0E0,0E0,0E0],"parents":[2147483647,0,0,1,1,2,2,3,3,4,4,5,5,6,6],"right_children":[2,4,6,8,10,12,14,-1,-1,-1,-1,-1,-1,-1,-1],"split_conditions":[-1.901434E-2,-9.434899E-1,8.130137E-1,-1.359504E0,-5.274759E-1,3.045521E-1,1.2752515E0,-1.4667824E-1,-9.299231E-2,-5.7146695E-2,-1.9140847E-2,2.459004E-2,6.1570764E-2,1.08499736E-1,1.6712332E-1],"split_indices":[21,21,21,21,21,21,21,0,0,0,0,0,0,0,0],"split_type":[0,0,0,0,0,0,0,0,0,0,0,0,0,0,0],"sum_hessian":[3.73E2,2.21E2,1.52E2,8.1E1,1.4E2,7.5E1,7.7E1,3.3E1,4.8E1,8.3E1,5.7E1,3.7E1,3.8E1,4E1,3.7E1],"tree_param":{"num_deleted":"0","num_feature":"41","num_nodes":"15","size_leaf_vector":"1"}},{"base_weights":[7.534433E-1,-1.4240098E1,1.8392141E1,-2.1593073E1,-6.817211E0,8.243604E0,2.7624464E1,-1.356129E-1,-8.598765E-2,-5.1183585E-2,-1.661584E-2,2.444461E-2,6.289334E-2,9.9937685E-2,1.5629543E-1],"categories":[],"categories_nodes":[],"categories_segments":[],"categories_sizes":[],"default_left":[0,0,0,0,0,0,0,0,0,0,0,0,0,0,0],"id":22,"left_children":[1,3,5,7,9,11,13,-1,-1,-1,-1,-1,-1,-1,-1],"loss_changes":[9.441152E4,1.0225379E4,1.4892527E4,1.3782578E3,1.1080259E3,1.0462383E3,1.084168E3,0E0,0E0,0E0,0E0,0E0,0E0,0E0,0E0],"parents":[2147483647,0,0,1,1,2,2,3,3,4,4,5,5,6,6],"right_children":[2,4,6,8,10,12,14,-1,-1,-1,-1,-1,-1,-1,-1],"split_conditions":[-1.901434E-2,-8.510424E-1,7.667899E-1,-1.2670563E0,-4.8125213E-1,3.045521E-1,1.182804E0,-1.356129E-1,-8.598765E-2,-5.1183585E-2,-1.661584E-2,2.444461E-2,6.289334E-2,9.9937685E-2,1.5629543E-1],"split_indices":[21,21,21,21,21,21,21,0,0,0,0,0,0,0,0],"split_type":[0,0,0,0,0,0,0,0,0,0,0,0,0,0,0],"sum_hessian":[3.53E2,1.91E2,1.62E2,9.4E1,9.7E1,7.9E1,8.3E1,3.7E1,5.7E1,4.7E1,5E1,4.7E1,3.2E1,3.1E1,5.2E1],"tree_param":{"num_deleted":"0","num_feature":"41","num_nodes":"15","size_leaf_vector":"1"}},{"base_weights":[-4.3864068E-1,-1.494455E1,1.8240076E1,-2.5646582E1,-8.807688E0,9.071627E0,2.891147E1,-1.5249938E-1,-9.991894E-2,-6.46911E-2,-2.2053774E-2,2.104806E-2,6.613317E-2,1.1051935E-1,1.7002554E-1],"categories":[],"categories_nodes":[],"categories_segments":[],"categories_sizes":[],"default_left":[0,0,0,0,0,0,0,0,0,0,0,0,0,0,0],"id":23,"left_children":[1,3,5,7,9,11,13,-1,-1,-1,-1,-1,-1,-1,-1],"loss_changes":[9.916997E4,1.30604375E4,1.5110883E4,7.895078E2,2.3108545E3,1.677876E3,9.9996875E2,0E0,0E0,0E0,0E0,0E0,0E0,0E0,0E0],"parents":[2147483647,0,0,1,1,2,2,3,3,4,4,5,5,6,6],"right_children":[2,4,6,8,10,12,14,-1,-1,-1,-1,-1,-1,-1,-1],"split_conditions":[4.935259E-1,1.5786852E-1,7.788845E-1,6.1254982E-2,3.2171315E-1,6.314741E-1,8.894422E-1,-1.5249938E-1,-9.991894E-2,-6.46911E-2,-2.2053774E-2,2.104806E-2,6.613317E-2,1.1051935E-1,1.7002554E-1],"split_indices":[13,13,13,13,13,13,13,0,0,0,0,0,0,0,0],"split_type":[0,0,0,0,0,0,0,0,0,0,0,0,0,0,0],"sum_hessian":[3.62E2,2.04E2,1.58E2,7.2E1,1.32E2,8.7E1,7.1E1,3.4E1,3.8E1,6.6E1,6.6E1,4.2E1,4.5E1,3.5E1,3.6E1],"tree_param":{"num_deleted":"0","num_feature":"41","num_nodes":"15","size_leaf_vector":"1"}},{"base_weights":[-6.2014425E-1,-1.2614302E1,2.0022306E1,-2.0896925E1,-5.303006E0,1.2241352E1,2.91795E1,-1.3794355E-1,-8.2656085E-2,-4.123891E-2,1.1504521E-3,3.665673E-2,7.986003E-2,1.18800655E-1,1.7531289E-1],"categories":[],"categories_nodes":[],"categories_segments":[],"categories_sizes":[],"default_left":[0,0,0,0,0,0,0,0,0,0,0,0,0,0,0],"id":24,"left_children":[1,3,5,7,9,11,13,-1,-1,-1,-1,-1,-1,-1,-1],"loss_changes":[9.161411E4,1.3935539E4,8.955129E3,2.2501523E3,2.0771086E3,1.1646064E3,2.4924219E2,0E0,0E0,0E0,0E0,0E0,0E0,0E0,0E0],"parents":[2147483647,0,0,1,1,2,2,3,3,4,4,5,5,6,6],"right_children":[2,4,6,8,10,12,14,-1,-1,-1,-1,-1,-1,-1,-1],"split_conditions":[5.363546E-1,2.3854582E-1,8.0876493E-1,9.611554E-2,4.1384462E-1,6.942231E-1,9.078685E-1,-1.3794355E-1,-8.2656085E-2,-4.123891E-2,1.1504521E-3,3.665673E-2,7.986003E-2,1.18800655E-1,1.7531289E-1],"split_indices":[13,13,13,13,13,13,13,0,0,0,0,0,0,0,0],"split_type":[0,0,0,0,0,0,0,0,0,0,0,0,0,0,0],"sum_hessian":[3.66E2,2.32E2,1.34E2,1.07E2,1.25E2,7.5E1,5.9E1,3.8E1,6.9E1,8.1E1,4.4E1,3.5E1,4E1,3.6E1,2.3E1],"tree_param":{"num_deleted":"0","num_feature":"41","num_nodes":"15","size_leaf_vector":"1"}},{"base_weights":[-3.7473938E-1,-1.1296243E1,1.9060947E1,-2.4788414E1,-7.154466E0,1.1526423E1,1.3708785E-1,-1.3522214E-1,-7.49136E-2,-5.9852254E-2,-1.09129865E-2,5.7621766E-3,7.036586E-2],"categories":[],"categories_nodes":[],"categories_segments":[],"categories_sizes":[],"default_left":[0,0,0,0,0,0,0,0,0,0,0,0,0],"id":25,"left_children":[1,3,5,7,9,11,-1,-1,-1,-1,-1,-1,-1],"loss_changes":[8.023911E4,1.315267E4,7.9114727E3,4.0740625E2,4.4422256E3,1.9414453E3,0E0,0E0,0E0,0E0,0E0,0E0,0E0],"parents":[2147483647,0,0,1,1,2,2,3,3,4,4,5,5],"right_children":[2,4,6,8,10,12,-1,-1,-1,-1,-1,-1,-1],"split_conditions":[9.056219E1,6.710387E1,1.091506E2,1.3750005E-1,4.4247746E-2,-1.2711865E-1,1.3708785E-1,-1.3522214E-1,-7.49136E-2,-5.9852254E-2,-1.09129865E-2,5.7621766E-3,7.036586E-2],"split_indices":[11,11,11,10,10,10,0,0,0,0,0,0,0],"split_type":[0,0,0,0,0,0,0,0,0,0,0,0,0],"sum_hessian":[3.74E2,2.4E2,1.34E2,5.4E1,1.86E2,7.3E1,6.1E1,4.1E1,1.3E1,9.3E1,9.3E1,1.5E1,5.8E1],"tree_param":{"num_deleted":"0","num_feature":"41","num_nodes":"13","size_leaf_vector":"1"}},{"base_weights":[-3.770037E-1,-1.2351609E1,2.0203459E1,-2.0026695E1,-4.8502502E0,1.138596E1,2.9911207E1,-1.3045347E-1,-7.574926E-2,-3.7281405E-2,1.6633887E-3,3.6635127E-2,7.984832E-2,1.2037696E-1,1.7945205E-1],"categories":[],"categories_nodes":[],"categories_segments":[],"categories_sizes":[],"default_left":[0,0,0,0,0,0,0,0,0,0,0,0,0,0,0],"id":26,"left_children":[1,3,5,7,9,11,13,-1,-1,-1,-1,-1,-1,-1,-1],"loss_changes":[9.044684E4,1.3150363E4,1.0853949E4,2.5601758E3,1.6293474E3,1.1310977E3,4.4016016E2,0E0,0E0,0E0,0E0,0E0,0E0,0E0,0E0],"parents":[2147483647,0,0,1,1,2,2,3,3,4,4,5,5,6,6],"right_children":[2,4,6,8,10,12,14,-1,-1,-1,-1,-1,-1,-1,-1],"split_conditions":[5.363546E-1,2.564741E-1,8.0876493E-1,1.1703187E-1,4.252988E-1,6.942231E-1,9.1583663E-1,-1.3045347E-1,-7.574926E-2,-3.7281405E-2,1.6633887E-3,3.6635127E-2,7.984832E-2,1.2037696E-1,1.7945205E-1],"split_indices":[13,13,13,13,13,13,13,0,0,0,0,0,0,0,0],"split_type":[0,0,0,0,0,0,0,0,0,0,0,0,0,0,0],"sum_hessian":[3.63E2,2.3E2,1.33E2,1.12E2,1.18E2,7.2E1,6.1E1,4.6E1,6.6E1,7.8E1,4E1,4.1E1,3.1E1,3.6E1,2.5E1],"tree_param":{"num_deleted":"0","num_feature":"41","num_nodes":"15","size_leaf_vector":"1"}},{"base_weights":[-6.159336E-2,-1.4239101E1,2.010159E1,-2.4306536E1,-8.28915E0,1.01237755E1,2.8778841E1,-1.4741002E-1,-9.593051E-2,-5.842233E-2,-1.6246496E-2,3.0835321E-2,7.309094E-2,1.1799939E-1,1.793294E-1],"categories":[],"categories_nodes":[],"categories_segments":[],"categories_sizes":[],"default_left":[0,0,0,0,0,0,0,0,0,0,0,0,0,0,0],"id":27,"left_children":[1,3,5,7,9,11,13,-1,-1,-1,-1,-1,-1,-1,-1],"loss_changes":[1.1148464E5,1.3298008E4,1.3337223E4,1.0704336E3,2.4320479E3,1.1963862E3,1.3972031E3,0E0,0E0,0E0,0E0,0E0,0E0,0E0,0E0],"parents":[2147483647,0,0,1,1,2,2,3,3,4,4,5,5,6,6],"right_children":[2,4,6,8,10,12,14,-1,-1,-1,-1,-1,-1,-1,-1],"split_conditions":[5.2241033E-1,1.7181274E-1,7.938247E-1,6.822709E-2,3.436255E-1,6.797809E-1,9.1583663E-1,-1.4741002E-1,-9.593051E-2,-5.842233E-2,-1.6246496E-2,3.0835321E-2,7.309094E-2,1.1799939E-1,1.793294E-1],"split_indices":[13,13,13,13,13,13,13,0,0,0,0,0,0,0,0],"split_type":[0,0,0,0,0,0,0,0,0,0,0,0,0,0,0],"sum_hessian":[3.86E2,2.27E2,1.59E2,8.2E1,1.45E2,7.6E1,8.3E1,3.6E1,4.6E1,8.5E1,6E1,4.3E1,3.3E1,5.3E1,3E1],"tree_param":{"num_deleted":"0","num_feature":"41","num_nodes":"15","size_leaf_vector":"1"}},{"base_weights":[-8.1418973E-1,-1.2264761E1,1.7142979E1,-1.9754274E1,-5.3024406E0,7.9380946E0,2.6375721E1,-1.3208869E-1,-7.7774994E-2,-4.4741828E-2,1.4981958E-2,4.544234E-3,5.9537537E-2,6.435971E-2,1.4174132E-1],"categories":[],"categories_nodes":[],"categories_segments":[],"categories_sizes":[],"default_left":[0,0,0,0,0,0,0,0,0,0,0,0,0,0,0],"id":28,"left_children":[1,3,5,7,9,11,13,-1,-1,-1,-1,-1,-1,-1,-1],"loss_changes":[7.8142375E4,1.187548E4,1.2142074E4,2.263129E3,3.778203E3,2.120401E3,1.194082E3,0E0,0E0,0E0,0E0,0E0,0E0,0E0,0E0],"parents":[2147483647,0,0,1,1,2,2,3,3,4,4,5,5,6,6],"right_children":[2,4,6,8,10,12,14,-1,-1,-1,-1,-1,-1,-1,-1],"split_conditions":[8.8248764E1,7.248096E1,1.0541074E2,6.464721E1,1E1,-8.045977E-2,-1.1016947E-1,-1.3208869E-1,-7.7774994E-2,-4.4741828E-2,1.4981958E-2,4.544234E-3,5.9537537E-2,6.435971E-2,1.4174132E-1],"split_indices":[11,11,11,11,9,10,10,0,0,0,0,0,0,0,0],"split_type":[0,0,0,0,0,0,0,0,0,0,0,0,0,0,0],"sum_hessian":[3.76E2,2.3E2,1.46E2,1.09E2,1.21E2,7.5E1,7.1E1,3.8E1,7.1E1,8.4E1,3.7E1,2.8E1,4.7E1,1.1E1,6E1],"tree_param":{"num_deleted":"0","num_feature":"41","num_nodes":"15","size_leaf_vector":"1"}},{"base_weights":[-1.3504972E-1,-1.2800938E1,1.8988081E1,-2.1511473E1,-5.6558094E0,9.3802E0,2.7971493E1,-1.3953418E-1,-8.417163E-2,-4.3252993E-2,-3.1395736E-3,2.7284672E-2,6.4048044E-2,1.06152564E-1,1.6283046E-1],"categories":[],"categories_nodes":[],"categories_segments":[],"categories_sizes":[],"default_left":[0,0,0,0,0,0,0,0,0,0,0,0,0,0,0],"id":29,"left_children":[1,3,5,7,9,11,13,-1,-1,-1,-1,-1,-1,-1,-1],"loss_changes":[9.179675E4,1.3933324E4,1.2489609E4,2.0890742E3,1.911855E3,8.7360547E2,9.7516797E2,0E0,0E0,0E0,0E0,0E0,0E0,0E0,0E0],"parents":[2147483647,0,0,1,1,2,2,3,3,4,4,5,5,6,6],"right_children":[2,4,6,8,10,12,14,-1,-1,-1,-1,-1,-1,-1,-1],"split_conditions":[5.2241033E-1,2.2111554E-1,7.788845E-1,8.615538E-2,4.0438247E-1,6.4691234E-1,8.894422E-1,-1.3953418E-1,-8.417163E-2,-4.3252993E-2,-3.1395736E-3,2.7284672E-2,6.4048044E-2,1.06152564E-1,1.6283046E-1],"split_indices":[13,13,13,13,13,13,13,0,0,0,0,0,0,0,0],"split_type":[0,0,0,0,0,0,0,0,0,0,0,0,0,0,0],"sum_hessian":[3.75E2,2.26E2,1.49E2,1E2,1.26E2,7.4E1,7.5E1,3.8E1,6.2E1,7.8E1,4.8E1,3.7E1,3.7E1,3.5E1,4E1],"tree_param":{"num_deleted":"0","num_feature":"41","num_nodes":"15","size_leaf_vector":"1"}},{"base_weights":[-7.3355854E-1,-1.3937517E1,1.7724327E1,-2.3323011E1,-7.221597E0,8.714252E0,2.5845648E1,-1.4653012E-1,-9.119835E-2,-5.2551802E-2,-1.3839733E-2,2.6259452E-2,6.384741E-2,9.821476E-2,1.4743099E-1],"categories":[],"categories_nodes":[],"categories_segments":[],"categories_sizes":[],"default_left":[0,0,0,0,0,0,0,0,0,0,0,0,0,0,0],"id":30,"left_children":[1,3,5,7,9,11,13,-1,-1,-1,-1,-1,-1,-1,-1],"loss_changes":[9.1154945E4,1.3388898E4,1.0947371E4,1.6443945E3,1.8392866E3,9.379927E2,6.461211E2,0E0,0E0,0E0,0E0,0E0,0E0,0E0,0E0],"parents":[2147483647,0,0,1,1,2,2,3,3,4,4,5,5,6,6],"right_children":[2,4,6,8,10,12,14,-1,-1,-1,-1,-1,-1,-1,-1],"split_conditions":[-1.901434E-2,-9.434899E-1,7.667899E-1,-1.4057277E0,-4.8125213E-1,3.507759E-1,1.182804E0,-1.4653012E-1,-9.119835E-2,-5.2551802E-2,-1.3839733E-2,2.6259452E-2,6.384741E-2,9.821476E-2,1.4743099E-1],"split_indices":[21,21,21,21,21,21,21,0,0,0,0,0,0,0,0],"split_type":[0,0,0,0,0,0,0,0,0,0,0,0,0,0,0],"sum_hessian":[3.7E2,2.16E2,1.54E2,8.8E1,1.28E2,7.5E1,7.9E1,3.6E1,5.2E1,7.2E1,5.6E1,4.3E1,3.2E1,3.4E1,4.5E1],"tree_param":{"num_deleted":"0","num_feature":"41","num_nodes":"15","size_leaf_vector":"1"}},{"base_weights":[6.2918955E-1,-1.2868878E1,2.051609E1,-2.0244844E1,-5.5213146E0,1.2062127E1,2.9813932E1,-1.2773693E-1,-7.77231E-2,-3.962834E-2,3.2910672E-3,3.5078842E-2,8.000287E-2,1.1972042E-1,1.8323267E-1],"categories":[],"categories_nodes":[],"categories_segments":[],"categories_sizes":[],"default_left":[0,0,0,0,0,0,0,0,0,0,0,0,0,0,0],"id":31,"left_children":[1,3,5,7,9,11,13,-1,-1,-1,-1,-1,-1,-1,-1],"loss_changes":[1.0092645E5,1.1903328E4,1.1207566E4,1.951668E3,1.7227112E3,1.4135889E3,1.0623164E3,0E0,0E0,0E0,0E0,0E0,0E0,0E0,0E0],"parents":[2147483647,0,0,1,1,2,2,3,3,4,4,5,5,6,6],"right_children":[2,4,6,8,10,12,14,-1,-1,-1,-1,-1,-1,-1,-1],"split_conditions":[7.343322E-2,-8.048186E-1,9.9790883E-1,-1.2208326E0,-3.425808E-1,4.8944724E-1,1.5063704E0,-1.2773693E-1,-7.77231E-2,-3.962834E-2,3.2910672E-3,3.5078842E-2,8.000287E-2,1.1972042E-1,1.8323267E-1],"split_indices":[21,21,21,21,21,21,21,0,0,0,0,0,0,0,0],"split_type":[0,0,0,0,0,0,0,0,0,0,0,0,0,0,0],"sum_hessian":[3.72E2,2.22E2,1.5E2,1.09E2,1.13E2,8.1E1,6.9E1,4.7E1,6.2E1,8.1E1,3.2E1,3.8E1,4.3E1,4.2E1,2.7E1],"tree_param":{"num_deleted":"0","num_feature":"41","num_nodes":"15","size_leaf_vector":"1"}},{"base_weights":[6.1814748E-2,-1.2852779E1,2.024348E1,-2.1413263E1,-5.65778E0,1.1456194E1,2.8705597E1,-1.3725848E-1,-8.223195E-2,-4.273674E-2,-2.439859E-3,3.579143E-2,7.790651E-2,1.246516E-1,1.8293035E-1],"categories":[],"categories_nodes":[],"categories_segments":[],"categories_sizes":[],"default_left":[0,0,0,0,0,0,0,0,0,0,0,0,0,0,0],"id":32,"left_children":[1,3,5,7,9,11,13,-1,-1,-1,-1,-1,-1,-1,-1],"loss_changes":[9.617823E4,1.3602512E4,1.0029906E4,2.1342852E3,1.8544543E3,1.0775312E3,2.8710547E2,0E0,0E0,0E0,0E0,0E0,0E0,0E0,0E0],"parents":[2147483647,0,0,1,1,2,2,3,3,4,4,5,5,6,6],"right_children":[2,4,6,8,10,12,14,-1,-1,-1,-1,-1,-1,-1,-1],"split_conditions":[7.343322E-2,-8.510424E-1,9.51685E-1,-1.3132802E0,-3.8880458E-1,4.8944724E-1,1.5525942E0,-1.3725848E-1,-8.223195E-2,-4.273674E-2,-2.439859E-3,3.579143E-2,7.790651E-2,1.246516E-1,1.8293035E-1],"split_indices":[21,21,21,21,21,21,21,0,0,0,0,0,0,0,0],"split_type":[0,0,0,0,0,0,0,0,0,0,0,0,0,0,0],"sum_hessian":[3.65E2,2.23E2,1.42E2,1E2,1.23E2,7.2E1,7E1,4.1E1,5.9E1,7.8E1,4.5E1,3.8E1,3.4E1,5.3E1,1.7E1],"tree_param":{"num_deleted":"0","num_feature":"41","num_nodes":"15","size_leaf_vector":"1"}},{"base_weights":[2.2212774E-1,-1.2930503E1,1.8841148E1,-2.0994833E1,-5.990552E0,9.978401E0,2.7903816E1,-1.3517396E-1,-8.290684E-2,-4.2986263E-2,-2.6815555E-3,3.06001E-2,7.1112104E-2,1.1154643E-1,1.7005756E-1],"categories":[],"categories_nodes":[],"categories_segments":[],"categories_sizes":[],"default_left":[0,0,0,0,0,0,0,0,0,0,0,0,0,0,0],"id":33,"left_children":[1,3,5,7,9,11,13,-1,-1,-1,-1,-1,-1,-1,-1],"loss_changes":[9.1099164E4,1.1935566E4,1.1793488E4,1.7473594E3,1.6923208E3,1.142124E3,1.01701953E3,0E0,0E0,0E0,0E0,0E0,0E0,0E0,0E0],"parents":[2147483647,0,0,1,1,2,2,3,3,4,4,5,5,6,6],"right_children":[2,4,6,8,10,12,14,-1,-1,-1,-1,-1,-1,-1,-1],"split_conditions":[5.2241033E-1,2.2111554E-1,7.938247E-1,8.615538E-2,4.0438247E-1,6.797809E-1,9.078685E-1,-1.3517396E-1,-8.290684E-2,-4.2986263E-2,-2.6815555E-3,3.06001E-2,7.1112104E-2,1.1154643E-1,1.7005756E-1],"split_indices":[13,13,13,13,13,13,13,0,0,0,0,0,0,0,0],"split_type":[0,0,0,0,0,0,0,0,0,0,0,0,0,0,0],"sum_hessian":[3.68E2,2.16E2,1.52E2,9.8E1,1.18E2,7.9E1,7.3E1,3.7E1,6.1E1,7.9E1,3.9E1,4.4E1,3.5E1,4.3E1,3E1],"tree_param":{"num_deleted":"0","num_feature":"41","num_nodes":"15","size_leaf_vector":"1"}},{"base_weights":[3.8209212E-1,-1.1362879E1,1.9638447E1,-2.0455498E1,-4.780762E0,1.2623683E1,1.4314088E-1,-1.3092166E-1,-7.863145E-2,-3.92863E-2,1.2244951E-3,3.8522054E-2,8.243286E-2],"categories":[],"categories_nodes":[],"categories_segments":[],"categories_sizes":[],"default_left":[0,0,0,0,0,0,0,0,0,0,0,0,0],"id":34,"left_children":[1,3,5,7,9,11,-1,-1,-1,-1,-1,-1,-1],"loss_changes":[8.119146E4,1.3138047E4,7.8328594E3,1.6751172E3,2.0485645E3,1.2540742E3,0E0,0E0,0E0,0E0,0E0,0E0,0E0],"parents":[2147483647,0,0,1,1,2,2,3,3,4,4,5,5],"right_children":[2,4,6,8,10,12,-1,-1,-1,-1,-1,-1,-1],"split_conditions":[5.5428284E-1,2.3854582E-1,8.192231E-1,9.611554E-2,4.1384462E-1,7.036853E-1,1.4314088E-1,-1.3092166E-1,-7.863145E-2,-3.92863E-2,1.2244951E-3,3.8522054E-2,8.243286E-2],"split_indices":[13,13,13,13,13,13,0,0,0,0,0,0,0],"split_type":[0,0,0,0,0,0,0,0,0,0,0,0,0],"sum_hessian":[3.55E2,2.21E2,1.34E2,9.1E1,1.3E2,7.8E1,5.6E1,3.7E1,5.4E1,8E1,5E1,3.7E1,4.1E1],"tree_param":{"num_deleted":"0","num_feature":"41","num_nodes":"13","size_leaf_vector":"1"}},{"base_weights":[-1.2654414E0,-1.4048084E1,1.6808298E1,-2.26937E1,-8.434309E0,7.194593E0,2.4756918E1,-1.365875E-1,-9.17717E-2,-5.9946503E-2,-2.2039225E-2,2.1210644E-2,4.9122214E-2,9.4872415E-2,1.468812E-1],"categories":[],"categories_nodes":[],"categories_segments":[],"categories_sizes":[],"default_left":[0,0,0,0,0,0,0,0,0,0,0,0,0,0,0],"id":35,"left_children":[1,3,5,7,9,11,13,-1,-1,-1,-1,-1,-1,-1,-1],"loss_changes":[8.641409E4,1.0230695E4,1.1472223E4,6.7984375E2,1.8328184E3,4.764248E2,1.1047383E3,0E0,0E0,0E0,0E0,0E0,0E0,0E0,0E0],"parents":[2147483647,0,0,1,1,2,2,3,3,4,4,5,5,6,6],"right_children":[2,4,6,8,10,12,14,-1,-1,-1,-1,-1,-1,-1,-1],"split_conditions":[4.935259E-1,1.7181274E-1,7.4302787E-1,6.822709E-2,3.2171315E-1,6.125498E-1,8.570717E-1,-1.365875E-1,-9.17717E-2,-5.9946503E-2,-2.2039225E-2,2.1210644E-2,4.9122214E-2,9.4872415E-2,1.468812E-1],"split_indices":[13,13,13,13,13,13,13,0,0,0,0,0,0,0,0],"split_type":[0,0,0,0,0,0,0,0,0,0,0,0,0,0,0],"sum_hessian":[3.7E2,2.17E2,1.53E2,8.3E1,1.34E2,7.1E1,8.2E1,3.5E1,4.8E1,6.9E1,6.5E1,3.6E1,3.5E1,4.1E1,4.1E1],"tree_param":{"num_deleted":"0","num_feature":"41","num_nodes":"15","size_leaf_vector":"1"}},{"base_weights":[-2.098968E-1,-1.0367528E1,1.8293694E1,-1.7359337E1,-3.0149467E0,1.0099417E1,2.511917E1,-1.2722076E-1,-6.98294E-2,-4.531902E-2,1.7812366E-3,1.6332438E-2,6.713837E-2,9.986449E-2,1.5813242E-1],"categories":[],"categories_nodes":[],"categories_segments":[],"categories_sizes":[],"default_left":[0,0,0,0,0,0,0,0,0,0,0,0,0,0,0],"id":36,"left_children":[1,3,5,7,9,11,13,-1,-1,-1,-1,-1,-1,-1,-1],"loss_changes":[6.841422E4,1.196598E4,6.689965E3,2.5618516E3,2.3966611E3,1.3139185E3,1.0215508E3,0E0,0E0,0E0,0E0,0E0,0E0,0E0,0E0],"parents":[2147483647,0,0,1,1,2,2,3,3,4,4,5,5,6,6],"right_children":[2,4,6,8,10,12,14,-1,-1,-1,-1,-1,-1,-1,-1],"split_conditions":[9.056219E1,7.4427765E1,1.0588169E2,6.464721E1,-5.0420165E-2,-5.3571403E-2,1.14612274E2,-1.2722076E-1,-6.98294E-2,-4.531902E-2,1.7812366E-3,1.6332438E-2,6.713837E-2,9.986449E-2,1.5813242E-1],"split_indices":[11,11,11,11,10,10,11,0,0,0,0,0,0,0,0],"split_type":[0,0,0,0,0,0,0,0,0,0,0,0,0,0,0],"sum_hessian":[3.6E2,2.33E2,1.27E2,1.18E2,1.15E2,6E1,6.7E1,3.1E1,8.7E1,4E1,7.5E1,2.1E1,3.9E1,4.2E1,2.5E1],"tree_param":{"num_deleted":"0","num_feature":"41","num_nodes":"15","size_leaf_vector":"1"}},{"base_weights":[7.9650736E-1,-1.2142113E1,1.7830952E1,-1.9151552E1,-5.5301294E0,8.661306E0,2.614365E1,-1.17507674E-1,-7.441275E-2,-3.9390743E-2,-2.9893953E-3,2.8174413E-2,6.2493604E-2,1.0156976E-1,1.5440655E-1],"categories":[],"categories_nodes":[],"categories_segments":[],"categories_sizes":[],"default_left":[0,0,0,0,0,0,0,0,0,0,0,0,0,0,0],"id":37,"left_children":[1,3,5,7,9,11,13,-1,-1,-1,-1,-1,-1,-1,-1],"loss_changes":[8.374788E4,9.786643E3,1.2030543E4,1.2125703E3,1.3065781E3,7.9078076E2,1.0673906E3,0E0,0E0,0E0,0E0,0E0,0E0,0E0,0E0],"parents":[2147483647,0,0,1,1,2,2,3,3,4,4,5,5,6,6],"right_children":[2,4,6,8,10,12,14,-1,-1,-1,-1,-1,-1,-1,-1],"split_conditions":[5.2241033E-1,2.3854582E-1,7.674303E-1,1.1703187E-1,4.0438247E-1,6.4691234E-1,8.804781E-1,-1.17507674E-1,-7.441275E-2,-3.9390743E-2,-2.9893953E-3,2.8174413E-2,6.2493604E-2,1.0156976E-1,1.5440655E-1],"split_indices":[13,13,13,13,13,13,13,0,0,0,0,0,0,0,0],"split_type":[0,0,0,0,0,0,0,0,0,0,0,0,0,0,0],"sum_hessian":[3.76E2,2.14E2,1.62E2,1.02E2,1.12E2,7.9E1,8.3E1,4.6E1,5.6E1,7.5E1,3.7E1,4.7E1,3.2E1,4.2E1,4.1E1],"tree_param":{"num_deleted":"0","num_feature":"41","num_nodes":"15","size_leaf_vector":"1"}},{"base_weights":[-6.8148226E-1,-1.3572993E1,1.632459E1,-2.3271847E1,-7.9908113E0,7.829955E0,2.5978357E1,-1.4927112E-1,-9.537986E-2,-5.9780464E-2,-2.0899935E-2,2.2323573E-2,5.816254E-2,9.662751E-2,1.5057516E-1],"categories":[],"categories_nodes":[],"categories_segments":[],"categories_sizes":[],"default_left":[0,0,0,0,0,0,0,0,0,0,0,0,0,0,0],"id":38,"left_children":[1,3,5,7,9,11,13,-1,-1,-1,-1,-1,-1,-1,-1],"loss_changes":[8.133911E4,1.1036145E4,1.2697113E4,9.355742E2,1.9621846E3,1.01417236E3,8.4783594E2,0E0,0E0,0E0,0E0,0E0,0E0,0E0,0E0],"parents":[2147483647,0,0,1,1,2,2,3,3,4,4,5,5,6,6],"right_children":[2,4,6,8,10,12,14,-1,-1,-1,-1,-1,-1,-1,-1],"split_conditions":[4.935259E-1,1.7181274E-1,7.559761E-1,5.1294822E-2,3.2171315E-1,6.314741E-1,8.700199E-1,-1.4927112E-1,-9.537986E-2,-5.9780464E-2,-2.0899935E-2,2.2323573E-2,5.816254E-2,9.662751E-2,1.5057516E-1],"split_indices":[13,13,13,13,13,13,13,0,0,0,0,0,0,0,0],"split_type":[0,0,0,0,0,0,0,0,0,0,0,0,0,0,0],"sum_hessian":[3.67E2,2.09E2,1.58E2,7.4E1,1.35E2,8.6E1,7.2E1,2.4E1,5E1,6.4E1,7.1E1,4.8E1,3.8E1,3.2E1,4E1],"tree_param":{"num_deleted":"0","num_feature":"41","num_nodes":"15","size_leaf_vector":"1"}},{"base_weights":[-7.8051585E-1,-1.3670756E1,1.649948E1,-2.3891233E1,-8.5438E0,7.727545E0,2.5780811E1,-1.4713812E-1,-9.404348E-2,-6.1419267E-2,-2.460728E-2,2.1410279E-2,5.8434587E-2,1.0278056E-1,1.6046436E-1],"categories":[],"categories_nodes":[],"categories_segments":[],"categories_sizes":[],"default_left":[0,0,0,0,0,0,0,0,0,0,0,0,0,0,0],"id":39,"left_children":[1,3,5,7,9,11,13,-1,-1,-1,-1,-1,-1,-1,-1],"loss_changes":[7.818712E4,1.0107922E4,1.1797086E4,7.260625E2,1.7265312E3,9.8328516E2,1.0287266E3,0E0,0E0,0E0,0E0,0E0,0E0,0E0,0E0],"parents":[2147483647,0,0,1,1,2,2,3,3,4,4,5,5,6,6],"right_children":[2,4,6,8,10,12,14,-1,-1,-1,-1,-1,-1,-1,-1],"split_conditions":[-6.523812E-2,-1.0359375E0,7.667899E-1,-1.4981753E0,-6.199235E-1,3.045521E-1,1.367699E0,-1.4713812E-1,-9.404348E-2,-6.1419267E-2,-2.460728E-2,2.1410279E-2,5.8434587E-2,1.0278056E-1,1.6046436E-1],"split_indices":[21,21,21,21,21,21,21,0,0,0,0,0,0,0,0],"split_type":[0,0,0,0,0,0,0,0,0,0,0,0,0,0,0],"sum_hessian":[3.47E2,1.99E2,1.48E2,6.4E1,1.35E2,7.8E1,7E1,2.6E1,3.8E1,6.4E1,7.1E1,4.4E1,3.4E1,4.3E1,2.7E1],"tree_param":{"num_deleted":"0","num_feature":"41","num_nodes":"15","size_leaf_vector":"1"}},{"base_weights":[2.9699814E-1,-1.1518831E1,1.6225338E1,-1.9363361E1,-6.309075E0,8.4278555E0,2.4000246E1,-1.2459137E-1,-7.3910065E-2,-4.5488715E-2,6.2695313E-3,1.297727E-2,6.2202897E-2,7.563605E-2,1.3074791E-1],"categories":[],"categories_nodes":[],"categories_segments":[],"categories_sizes":[],"default_left":[0,0,0,0,0,0,0,0,0,0,0,0,0,0,0],"id":40,"left_children":[1,3,5,7,9,11,13,-1,-1,-1,-1,-1,-1,-1,-1],"loss_changes":[6.982437E4,8.447734E3,9.157949E3,1.3811836E3,2.7896113E3,1.8470171E3,6.7577344E2,0E0,0E0,0E0,0E0,0E0,0E0,0E0,0E0],"parents":[2147483647,0,0,1,1,2,2,3,3,4,4,5,5,6,6],"right_children":[2,4,6,8,10,12,14,-1,-1,-1,-1,-1,-1,-1,-1],"split_conditions":[8.8248764E1,7.132376E1,1.0523547E2,-1.23076916E-1,1.4634144E-1,-5.3571403E-2,-7.499999E-2,-1.2459137E-1,-7.3910065E-2,-4.5488715E-2,6.2695313E-3,1.297727E-2,6.2202897E-2,7.563605E-2,1.3074791E-1],"split_indices":[11,11,11,10,10,10,10,0,0,0,0,0,0,0,0],"split_type":[0,0,0,0,0,0,0,0,0,0,0,0,0,0,0],"sum_hessian":[3.67E2,2.11E2,1.56E2,8.2E1,1.29E2,8E1,7.6E1,3.3E1,4.9E1,9.4E1,3.5E1,3.4E1,4.6E1,1.8E1,5.8E1],"tree_param":{"num_deleted":"0","num_feature":"41","num_nodes":"15","size_leaf_vector":"1"}},{"base_weights":[4.7468525E-1,-1.2553719E1,1.687805E1,-2.0643879E1,-6.4238744E0,8.945308E0,2.6297548E1,-1.3757555E-1,-8.731961E-2,-4.701835E-2,-1.4219835E-2,2.5472488E-2,6.3220784E-2,9.8182864E-2,1.51335E-1],"categories":[],"categories_nodes":[],"categories_segments":[],"categories_sizes":[],"default_left":[0,0,0,0,0,0,0,0,0,0,0,0,0,0,0],"id":41,"left_children":[1,3,5,7,9,11,13,-1,-1,-1,-1,-1,-1,-1,-1],"loss_changes":[7.821625E4,9.837887E3,1.1616934E4,9.174375E2,1.2098086E3,1.1584639E3,7.1651953E2,0E0,0E0,0E0,0E0,0E0,0E0,0E0,0E0],"parents":[2147483647,0,0,1,1,2,2,3,3,4,4,5,5,6,6],"right_children":[2,4,6,8,10,12,14,-1,-1,-1,-1,-1,-1,-1,-1],"split_conditions":[5.054781E-1,2.0468128E-1,7.788845E-1,6.1254982E-2,3.635458E-1,6.4691234E-1,8.804781E-1,-1.3757555E-1,-8.731961E-2,-4.701835E-2,-1.4219835E-2,2.5472488E-2,6.3220784E-2,9.8182864E-2,1.51335E-1],"split_indices":[13,13,13,13,13,13,13,0,0,0,0,0,0,0,0],"split_type":[0,0,0,0,0,0,0,0,0,0,0,0,0,0,0],"sum_hessian":[3.62E2,2.02E2,1.6E2,8.5E1,1.17E2,8.9E1,7.1E1,2.2E1,6.3E1,6.2E1,5.5E1,4.6E1,4.3E1,3.1E1,4E1],"tree_param":{"num_deleted":"0","num_feature":"41","num_nodes":"15","size_leaf_vector":"1"}},{"base_weights":[4.9315102E-2,-1.2485018E1,1.8338455E1,-2.0424751E1,-5.4892974E0,1.0777589E1,2.8226479E1,-1.3606489E-1,-7.927111E-2,-3.8559753E-2,-5.3869036E-4,3.2522913E-2,7.568991E-2,1.1543315E-1,1.6983263E-1],"categories":[],"categories_nodes":[],"categories_segments":[],"categories_sizes":[],"default_left":[0,0,0,0,0,0,0,0,0,0,0,0,0,0,0],"id":42,"left_children":[1,3,5,7,9,11,13,-1,-1,-1,-1,-1,-1,-1,-1],"loss_changes":[8.230029E4,1.1593711E4,1.0287328E4,2.1871406E3,1.3819438E3,1.3945967E3,2.323125E2,0E0,0E0,0E0,0E0,0E0,0E0,0E0,0E0],"parents":[2147483647,0,0,1,1,2,2,3,3,4,4,5,5,6,6],"right_children":[2,4,6,8,10,12,14,-1,-1,-1,-1,-1,-1,-1,-1],"split_conditions":[5.2241033E-1,2.2111554E-1,8.192231E-1,7.669323E-2,4.1384462E-1,6.942231E-1,9.243028E-1,-1.3606489E-1,-7.927111E-2,-3.8559753E-2,-5.3869036E-4,3.2522913E-2,7.568991E-2,1.1543315E-1,1.6983263E-1],"split_indices":[13,13,13,13,13,13,13,0,0,0,0,0,0,0,0],"split_type":[0,0,0,0,0,0,0,0,0,0,0,0,0,0,0],"sum_hessian":[3.55E2,2.11E2,1.44E2,9.7E1,1.14E2,8.4E1,6E1,3.5E1,6.2E1,8E1,3.4E1,4.5E1,3.9E1,3.7E1,2.3E1],"tree_param":{"num_deleted":"0","num_feature":"41","num_nodes":"15","size_leaf_vector":"1"}},{"base_weights":[-1.9207622E-1,-1.1747922E1,1.940178E1,-1.8699888E1,-4.097608E0,1.272455E1,2.8435226E1,-1.1941413E-1,-7.080099E-2,-3.372317E-2,3.7470988E-3,3.532835E-2,7.994166E-2,1.1441898E-1,1.6845176E-1],"categories":[],"categories_nodes":[],"categories_segments":[],"categories_sizes":[],"default_left":[0,0,0,0,0,0,0,0,0,0,0,0,0,0,0],"id":43,"left_children":[1,3,5,7,9,11,13,-1,-1,-1,-1,-1,-1,-1,-1],"loss_changes":[8.422876E4,1.2280578E4,7.579711E3,2.1751406E3,1.4757509E3,1.2954922E3,9.2671875E1,0E0,0E0,0E0,0E0,0E0,0E0,0E0,0E0],"parents":[2147483647,0,0,1,1,2,2,3,3,4,4,5,5,6,6],"right_children":[2,4,6,8,10,12,14,-1,-1,-1,-1,-1,-1,-1,-1],"split_conditions":[1.19657E-1,-7.585948E-1,1.0441326E0,-1.1746088E0,-2.96357E-1,5.35671E-1,1.5063704E0,-1.1941413E-1,-7.080099E-2,-3.372317E-2,3.7470988E-3,3.532835E-2,7.994166E-2,1.1441898E-1,1.6845176E-1],"split_indices":[21,21,21,21,21,21,21,0,0,0,0,0,0,0,0],"split_type":[0,0,0,0,0,0,0,0,0,0,0,0,0,0,0],"sum_hessian":[3.68E2,2.32E2,1.36E2,1.2E2,1.12E2,8.1E1,5.5E1,5.2E1,6.8E1,7.2E1,4E1,3.2E1,4.9E1,3.2E1,2.3E1],"tree_param":{"num_deleted":"0","num_feature":"41","num_nodes":"15","size_leaf_vector":"1"}},{"base_weights":[-2.428604E-1,-1.3011214E1,1.695885E1,-2.3606928E1,-8.027059E0,9.024202E0,2.5554214E1,-1.4593871E-1,-9.724295E-2,-5.8773722E-2,-1.8830761E-2,2.2694198E-2,6.32038E-2,1.037894E-1,1.545278E-1],"categories":[],"categories_nodes":[],"categories_segments":[],"categories_sizes":[],"default_left":[0,0,0,0,0,0,0,0,0,0,0,0,0,0,0],"id":44,"left_children":[1,3,5,7,9,11,13,-1,-1,-1,-1,-1,-1,-1,-1],"loss_changes":[7.423754E4,9.850469E3,9.342473E3,2.5598438E2,2.0479473E3,1.1419438E3,4.364414E2,0E0,0E0,0E0,0E0,0E0,0E0,0E0,0E0],"parents":[2147483647,0,0,1,1,2,2,3,3,4,4,5,5,6,6],"right_children":[2,4,6,8,10,12,14,-1,-1,-1,-1,-1,-1,-1,-1],"split_conditions":[5.054781E-1,1.5786852E-1,7.788845E-1,4.3326695E-2,3.2171315E-1,6.4691234E-1,8.994024E-1,-1.4593871E-1,-9.724295E-2,-5.8773722E-2,-1.8830761E-2,2.2694198E-2,6.32038E-2,1.037894E-1,1.545278E-1],"split_indices":[13,13,13,13,13,13,13,0,0,0,0,0,0,0,0],"split_type":[0,0,0,0,0,0,0,0,0,0,0,0,0,0,0],"sum_hessian":[3.34E2,1.92E2,1.42E2,5.9E1,1.33E2,7.6E1,6.6E1,2E1,3.9E1,6.9E1,6.4E1,3.6E1,4E1,4E1,2.6E1],"tree_param":{"num_deleted":"0","num_feature":"41","num_nodes":"15","size_leaf_vector":"1"}},{"base_weights":[6.988073E-1,-1.13735075E1,1.827461E1,-1.8754217E1,-3.8485575E0,1.0674494E1,2.6769688E1,-1.24094285E-1,-7.255925E-2,-3.3403706E-2,2.6409267E-3,3.3735037E-2,7.224252E-2,1.0693885E-1,1.5820085E-1],"categories":[],"categories_nodes":[],"categories_segments":[],"categories_sizes":[],"default_left":[0,0,0,0,0,0,0,0,0,0,0,0,0,0,0],"id":45,"left_children":[1,3,5,7,9,11,13,-1,-1,-1,-1,-1,-1,-1,-1],"loss_changes":[7.765289E4,1.1896412E4,9.029746E3,2.0643984E3,1.3736652E3,1.00986914E3,4.2872656E2,0E0,0E0,0E0,0E0,0E0,0E0,0E0,0E0],"parents":[2147483647,0,0,1,1,2,2,3,3,4,4,5,5,6,6],"right_children":[2,4,6,8,10,12,14,-1,-1,-1,-1,-1,-1,-1,-1],"split_conditions":[7.343322E-2,-7.585948E-1,9.51685E-1,-1.2670563E0,-2.96357E-1,4.8944724E-1,1.4139228E0,-1.24094285E-1,-7.255925E-2,-3.3403706E-2,2.6409267E-3,3.3735037E-2,7.224252E-2,1.0693885E-1,1.5820085E-1],"split_indices":[21,21,21,21,21,21,21,0,0,0,0,0,0,0,0],"split_type":[0,0,0,0,0,0,0,0,0,0,0,0,0,0,0],"sum_hessian":[3.62E2,2.15E2,1.47E2,1.07E2,1.08E2,8E1,6.7E1,4E1,6.7E1,6.5E1,4.3E1,4.2E1,3.8E1,3.7E1,3E1],"tree_param":{"num_deleted":"0","num_feature":"41","num_nodes":"15","size_leaf_vector":"1"}},{"base_weights":[-3.061068E-1,-1.1579114E1,1.619354E1,-1.8380108E1,-4.8688807E0,7.8593125E0,2.4646473E1,-1.2715776E-1,-7.09954E-2,-4.8885584E-2,-8.069163E-3,1.02494415E-2,5.7577018E-2,8.5740395E-2,1.377489E-1],"categories":[],"categories_nodes":[],"categories_segments":[],"categories_sizes":[],"default_left":[0,0,0,0,0,0,0,0,0,0,0,0,0,0,0],"id":46,"left_children":[1,3,5,7,9,11,13,-1,-1,-1,-1,-1,-1,-1,-1],"loss_changes":[6.9192945E4,9.89501E3,1.0234086E4,2.471543E3,1.7840737E3,1.6239502E3,6.4378906E2,0E0,0E0,0E0,0E0,0E0,0E0,0E0,0E0],"parents":[2147483647,0,0,1,1,2,2,3,3,4,4,5,5,6,6],"right_children":[2,4,6,8,10,12,14,-1,-1,-1,-1,-1,-1,-1,-1],"split_conditions":[8.8248764E1,7.387551E1,1.0588169E2,6.464721E1,-3.571427E-2,-5.3571403E-2,-4.1666687E-2,-1.2715776E-1,-7.09954E-2,-4.8885584E-2,-8.069163E-3,1.02494415E-2,5.7577018E-2,8.5740395E-2,1.377489E-1],"split_indices":[11,11,11,11,10,10,10,0,0,0,0,0,0,0,0],"split_type":[0,0,0,0,0,0,0,0,0,0,0,0,0,0,0],"sum_hessian":[3.68E2,2.19E2,1.49E2,1.07E2,1.12E2,7.7E1,7.2E1,3.6E1,7.1E1,4.3E1,6.9E1,3.1E1,4.6E1,2.4E1,4.8E1],"tree_param":{"num_deleted":"0","num_feature":"41","num_nodes":"15","size_leaf_vector":"1"}},{"base_weights":[3.3234668E-1,-1.0818053E1,1.824875E1,-1.7331078E1,-3.3428178E0,1.0516579E1,2.6225605E1,-1.1488895E-1,-6.576738E-2,-2.9843483E-2,5.3786025E-3,3.129369E-2,6.8774186E-2,1.05349645E-1,1.5507735E-1],"categories":[],"categories_nodes":[],"categories_segments":[],"categories_sizes":[],"default_left":[0,0,0,0,0,0,0,0,0,0,0,0,0,0,0],"id":47,"left_children":[1,3,5,7,9,11,13,-1,-1,-1,-1,-1,-1,-1,-1],"loss_changes":[7.551398E4,1.1217725E4,8.373391E3,2.302586E3,1.3031704E3,8.7949316E2,3.956211E2,0E0,0E0,0E0,0E0,0E0,0E0,0E0,0E0],"parents":[2147483647,0,0,1,1,2,2,3,3,4,4,5,5,6,6],"right_children":[2,4,6,8,10,12,14,-1,-1,-1,-1,-1,-1,-1,-1],"split_conditions":[5.5428284E-1,2.734064E-1,8.0876493E-1,1.2998007E-1,4.422311E-1,6.797809E-1,9.078685E-1,-1.1488895E-1,-6.576738E-2,-2.9843483E-2,5.3786025E-3,3.129369E-2,6.8774186E-2,1.05349645E-1,1.5507735E-1],"split_indices":[13,13,13,13,13,13,13,0,0,0,0,0,0,0,0],"split_type":[0,0,0,0,0,0,0,0,0,0,0,0,0,0,0],"sum_hessian":[3.74E2,2.31E2,1.43E2,1.22E2,1.09E2,7.5E1,6.8E1,4.8E1,7.4E1,6.8E1,4.1E1,3.5E1,4E1,3.8E1,3E1],"tree_param":{"num_deleted":"0","num_feature":"41","num_nodes":"15","size_leaf_vector":"1"}},{"base_weights":[-3.4515426E-1,-1.2220356E1,1.7633904E1,-2.0439938E1,-5.890345E0,9.407099E0,2.5592457E1,-1.343504E-1,-8.289153E-2,-4.404949E-2,-6.9356887E-3,2.9404353E-2,6.492994E-2,1.04996234E-1,1.5646277E-1],"categories":[],"categories_nodes":[],"categories_segments":[],"categories_sizes":[],"default_left":[0,0,0,0,0,0,0,0,0,0,0,0,0,0,0],"id":48,"left_children":[1,3,5,7,9,11,13,-1,-1,-1,-1,-1,-1,-1,-1],"loss_changes":[7.7290055E4,1.108859E4,8.929176E3,1.4214531E3,1.6270269E3,7.7170703E2,5.446992E2,0E0,0E0,0E0,0E0,0E0,0E0,0E0,0E0],"parents":[2147483647,0,0,1,1,2,2,3,3,4,4,5,5,6,6],"right_children":[2,4,6,8,10,12,14,-1,-1,-1,-1,-1,-1,-1,-1],"split_conditions":[5.2241033E-1,2.0468128E-1,7.938247E-1,6.822709E-2,3.874502E-1,6.797809E-1,9.078685E-1,-1.343504E-1,-8.289153E-2,-4.404949E-2,-6.9356887E-3,2.9404353E-2,6.492994E-2,1.04996234E-1,1.5646277E-1],"split_indices":[13,13,13,13,13,13,13,0,0,0,0,0,0,0,0],"split_type":[0,0,0,0,0,0,0,0,0,0,0,0,0,0,0],"sum_hessian":[3.58E2,2.16E2,1.42E2,9.2E1,1.24E2,7.2E1,7E1,3E1,6.2E1,7.4E1,5E1,3.9E1,3.3E1,4.4E1,2.6E1],"tree_param":{"num_deleted":"0","num_feature":"41","num_nodes":"15","size_leaf_vector":"1"}},{"base_weights":[1.193448E0,-1.1089054E1,1.775606E1,-1.7973812E1,-4.364904E0,1.0746003E1,2.705568E1,-1.1450495E-1,-6.925175E-2,-3.339367E-2,2.6655295E-3,3.4080133E-2,7.623987E-2,1.1398009E-1,1.6649763E-1],"categories":[],"categories_nodes":[],"categories_segments":[],"categories_sizes":[],"default_left":[0,0,0,0,0,0,0,0,0,0,0,0,0,0,0],"id":49,"left_children":[1,3,5,7,9,11,13,-1,-1,-1,-1,-1,-1,-1,-1],"loss_changes":[7.932809E4,1.0201811E4,1.0221305E4,1.582125E3,1.3248408E3,1.5149844E3,3.1552344E2,0E0,0E0,0E0,0E0,0E0,0E0,0E0,0E0],"parents":[2147483647,0,0,1,1,2,2,3,3,4,4,5,5,6,6],"right_children":[2,4,6,8,10,12,14,-1,-1,-1,-1,-1,-1,-1,-1],"split_conditions":[5.363546E-1,2.564741E-1,8.192231E-1,1.1703187E-1,4.252988E-1,7.036853E-1,9.312749E-1,-1.1450495E-1,-6.925175E-2,-3.339367E-2,2.6655295E-3,3.4080133E-2,7.623987E-2,1.1398009E-1,1.6649763E-1],"split_indices":[13,13,13,13,13,13,13,0,0,0,0,0,0,0,0],"split_type":[0,0,0,0,0,0,0,0,0,0,0,0,0,0,0],"sum_hessian":[3.86E2,2.22E2,1.64E2,1.08E2,1.14E2,9.6E1,6.8E1,4.5E1,6.3E1,7.7E1,3.7E1,5.4E1,4.2E1,4.6E1,2.2E1],"tree_param":{"num_deleted":"0","num_feature":"41","num_nodes":"15","size_leaf_vector":"1"}},{"base_weights":[-1.0109427E0,-1.1632773E1,1.6495028E1,-1.8088942E1,-5.8339043E0,9.709244E0,1.306324E-1,-1.2199525E-1,-6.887141E-2,-4.3086164E-2,1.3932746E-2,1.8482106E-2,6.663617E-2],"categories":[],"categories_nodes":[],"categories_segments":[],"categories_sizes":[],"default_left":[0,0,0,0,0,0,0,0,0,0,0,0,0],"id":50,"left_children":[1,3,5,7,9,11,-1,-1,-1,-1,-1,-1,-1],"loss_changes":[6.694981E4,8.1631973E3,8.363289E3,2.1674805E3,2.9541602E3,1.6985723E3,0E0,0E0,0E0,0E0,0E0,0E0,0E0],"parents":[2147483647,0,0,1,1,2,2,3,3,4,4,5,5],"right_children":[2,4,6,8,10,12,-1,-1,-1,-1,-1,-1,-1],"split_conditions":[8.8248764E1,7.219445E1,1.0967173E2,6.464721E1,1.2E1,-1E0,1.306324E-1,-1.2199525E-1,-6.887141E-2,-4.3086164E-2,1.3932746E-2,1.8482106E-2,6.663617E-2],"split_indices":[11,11,11,11,9,9,0,0,0,0,0,0,0],"split_type":[0,0,0,0,0,0,0,0,0,0,0,0,0],"sum_hessian":[3.56E2,2.22E2,1.34E2,1.03E2,1.19E2,8.1E1,5.3E1,3.8E1,6.5E1,9E1,2.9E1,3.2E1,4.9E1],"tree_param":{"num_deleted":"0","num_feature":"41","num_nodes":"13","size_leaf_vector":"1"}},{"base_weights":[-5.3585283E-2,-1.2655818E1,1.6643896E1,-2.1686071E1,-7.640952E0,7.842047E0,2.4146843E1,-1.3748203E-1,-8.9686036E-2,-5.5926535E-2,-1.8343031E-2,2.2273201E-2,5.4124255E-2,8.731918E-2,1.3695498E-1],"categories":[],"categories_nodes":[],"categories_segments":[],"categories_sizes":[],"default_left":[0,0,0,0,0,0,0,0,0,0,0,0,0,0,0],"id":51,"left_children":[1,3,5,7,9,11,13,-1,-1,-1,-1,-1,-1,-1,-1],"loss_changes":[7.974971E4,9.435605E3,1.0369777E4,6.463086E2,1.9097803E3,6.840288E2,9.0708594E2,0E0,0E0,0E0,0E0,0E0,0E0,0E0,0E0],"parents":[2147483647,0,0,1,1,2,2,3,3,4,4,5,5,6,6],"right_children":[2,4,6,8,10,12,14,-1,-1,-1,-1,-1,-1,-1,-1],"split_conditions":[5.054781E-1,1.7181274E-1,7.559761E-1,5.1294822E-2,3.2171315E-1,6.314741E-1,8.570717E-1,-1.3748203E-1,-8.9686036E-2,-5.5926535E-2,-1.8343031E-2,2.2273201E-2,5.4124255E-2,8.731918E-2,1.3695498E-1],"split_indices":[13,13,13,13,13,13,13,0,0,0,0,0,0,0,0],"split_type":[0,0,0,0,0,0,0,0,0,0,0,0,0,0,0],"sum_hessian":[3.75E2,2.14E2,1.61E2,7.4E1,1.4E2,7.6E1,8.5E1,2.4E1,5E1,7.2E1,6.8E1,3.8E1,3.8E1,3.2E1,5.3E1],"tree_param":{"num_deleted":"0","num_feature":"41","num_nodes":"15","size_leaf_vector":"1"}},{"base_weights":[3.29551E-1,-1.1488955E1,1.8389105E1,-1.9619255E1,-5.070758E0,1.1078926E1,2.6011095E1,-1.2905027E-1,-7.6571085E-2,-3.7365366E-2,7.2405464E-4,3.1690374E-2,7.3015206E-2,1.10877424E-1,1.5996163E-1],"categories":[],"categories_nodes":[],"categories_segments":[],"categories_sizes":[],"default_left":[0,0,0,0,0,0,0,0,0,0,0,0,0,0,0],"id":52,"left_children":[1,3,5,7,9,11,13,-1,-1,-1,-1,-1,-1,-1,-1],"loss_changes":[7.662298E4,1.111215E4,7.317078E3,1.7208203E3,1.5594795E3,1.0741729E3,1.1405469E2,0E0,0E0,0E0,0E0,0E0,0E0,0E0,0E0],"parents":[2147483647,0,0,1,1,2,2,3,3,4,4,5,5,6,6],"right_children":[2,4,6,8,10,12,14,-1,-1,-1,-1,-1,-1,-1,-1],"split_conditions":[5.363546E-1,2.2111554E-1,8.192231E-1,7.669323E-2,4.1384462E-1,6.942231E-1,9.243028E-1,-1.2905027E-1,-7.6571085E-2,-3.7365366E-2,7.2405464E-4,3.1690374E-2,7.3015206E-2,1.10877424E-1,1.5996163E-1],"split_indices":[13,13,13,13,13,13,13,0,0,0,0,0,0,0,0],"split_type":[0,0,0,0,0,0,0,0,0,0,0,0,0,0,0],"sum_hessian":[3.55E2,2.15E2,1.4E2,9.3E1,1.22E2,7.4E1,6.6E1,3.4E1,5.9E1,8.3E1,3.9E1,3.4E1,4E1,4.6E1,2E1],"tree_param":{"num_deleted":"0","num_feature":"41","num_nodes":"15","size_leaf_vector":"1"}},{"base_weights":[-5.5549987E-2,-1.1747095E1,1.691354E1,-1.9798464E1,-5.7707767E0,1.0108883E1,2.7059767E1,-1.2636124E-1,-7.7966824E-2,-4.5415457E-2,-1.2379821E-2,2.7460271E-2,7.063341E-2,1.0944705E-1,1.7106363E-1],"categories":[],"categories_nodes":[],"categories_segments":[],"categories_sizes":[],"default_left":[0,0,0,0,0,0,0,0,0,0,0,0,0,0,0],"id":53,"left_children":[1,3,5,7,9,11,13,-1,-1,-1,-1,-1,-1,-1,-1],"loss_changes":[7.5388055E4,1.058516E4,1.0135777E4,1.3780977E3,1.3898179E3,1.6157725E3,7.301406E2,0E0,0E0,0E0,0E0,0E0,0E0,0E0,0E0],"parents":[2147483647,0,0,1,1,2,2,3,3,4,4,5,5,6,6],"right_children":[2,4,6,8,10,12,14,-1,-1,-1,-1,-1,-1,-1,-1],"split_conditions":[5.2241033E-1,2.0468128E-1,8.192231E-1,7.669323E-2,3.635458E-1,6.797809E-1,9.312749E-1,-1.2636124E-1,-7.7966824E-2,-4.5415457E-2,-1.2379821E-2,2.7460271E-2,7.063341E-2,1.0944705E-1,1.7106363E-1],"split_indices":[13,13,13,13,13,13,13,0,0,0,0,0,0,0,0],"split_type":[0,0,0,0,0,0,0,0,0,0,0,0,0,0,0],"sum_hessian":[3.76E2,2.23E2,1.53E2,9.3E1,1.3E2,9.4E1,5.9E1,3.6E1,5.7E1,6.3E1,6.7E1,4.6E1,4.8E1,3.9E1,2E1],"tree_param":{"num_deleted":"0","num_feature":"41","num_nodes":"15","size_leaf_vector":"1"}},{"base_weights":[5.3093106E-1,-1.169955E1,1.5725245E1,-1.7669172E1,-6.0524235E0,7.649185E0,2.3155575E1,-1.1649279E-1,-6.7630485E-2,-5.0279286E-2,-1.1529878E-2,1.4304921E-2,5.8303464E-2,8.619449E-2,1.3834372E-1],"categories":[],"categories_nodes":[],"categories_segments":[],"categories_sizes":[],"default_left":[0,0,0,0,0,0,0,0,0,0,0,0,0,0,0],"id":54,"left_children":[1,3,5,7,9,11,13,-1,-1,-1,-1,-1,-1,-1,-1],"loss_changes":[7.04293E4,6.8536133E3,9.771672E3,1.7069297E3,1.612293E3,1.539481E3,1.34675E3,0E0,0E0,0E0,0E0,0E0,0E0,0E0,0E0],"parents":[2147483647,0,0,1,1,2,2,3,3,4,4,5,5,6,6],"right_children":[2,4,6,8,10,12,14,-1,-1,-1,-1,-1,-1,-1,-1],"split_conditions":[8.8248764E1,7.218214E1,1.0523547E2,-1.23076916E-1,8.474588E-3,8.474588E-3,1.1311667E2,-1.1649279E-1,-6.7630485E-2,-5.0279286E-2,-1.1529878E-2,1.4304921E-2,5.8303464E-2,8.619449E-2,1.3834372E-1],"split_indices":[11,11,11,10,10,10,11,0,0,0,0,0,0,0,0],"split_type":[0,0,0,0,0,0,0,0,0,0,0,0,0,0,0],"sum_hessian":[3.75E2,2.08E2,1.67E2,9.9E1,1.09E2,8.2E1,8.5E1,3.8E1,6.1E1,5.1E1,5.8E1,3.9E1,4.3E1,4.1E1,4.4E1],"tree_param":{"num_deleted":"0","num_feature":"41","num_nodes":"15","size_leaf_vector":"1"}},{"base_weights":[8.013535E-2,-1.1037385E1,1.6068333E1,-2.1317728E1,-7.7600164E0,7.682869E0,2.2767513E1,-1.3329907E-1,-8.148531E-2,-5.819462E-2,-1.9376883E-2,6.2817293E-3,5.072001E-2,8.801116E-2,1.3541344E-1],"categories":[],"categories_nodes":[],"categories_segments":[],"categories_sizes":[],"default_left":[0,0,0,0,0,0,0,0,0,0,0,0,0,0,0],"id":55,"left_children":[1,3,5,7,9,11,13,-1,-1,-1,-1,-1,-1,-1,-1],"loss_changes":[6.630213E4,7.066953E3,8.229824E3,5.0425195E2,2.46362E3,1.0917847E3,8.965078E2,0E0,0E0,0E0,0E0,0E0,0E0,0E0,0E0],"parents":[2147483647,0,0,1,1,2,2,3,3,4,4,5,5,6,6],"right_children":[2,4,6,8,10,12,14,-1,-1,-1,-1,-1,-1,-1,-1],"split_conditions":[8.8248764E1,6.710387E1,1.04689705E2,-1.6250002E-1,8.474588E-3,-8.771932E-2,1.1311667E2,-1.3329907E-1,-8.148531E-2,-5.819462E-2,-1.9376883E-2,6.2817293E-3,5.072001E-2,8.801116E-2,1.3541344E-1],"split_indices":[11,11,11,10,10,10,11,0,0,0,0,0,0,0,0],"split_type":[0,0,0,0,0,0,0,0,0,0,0,0,0,0,0],"sum_hessian":[3.69E2,2.18E2,1.51E2,5E1,1.68E2,6.9E1,8.2E1,2E1,3E1,8.2E1,8.6E1,2E1,4.9E1,4.2E1,4E1],"tree_param":{"num_deleted":"0","num_feature":"41","num_nodes":"15","size_leaf_vector":"1"}},{"base_weights":[2.0512823E-2,-1.2815206E1,1.6245157E1,-2.1310862E1,-7.3012757E0,7.5195765E0,2.4266367E1,-1.3581823E-1,-8.647388E-2,-5.6590065E-2,-2.0771505E-2,2.0562034E-2,5.315422E-2,9.65888E-2,1.5364143E-1],"categories":[],"categories_nodes":[],"categories_segments":[],"categories_sizes":[],"default_left":[0,0,0,0,0,0,0,0,0,0,0,0,0,0,0],"id":56,"left_children":[1,3,5,7,9,11,13,-1,-1,-1,-1,-1,-1,-1,-1],"loss_changes":[7.684765E4,9.324457E3,1.1027484E4,9.186172E2,1.5162202E3,7.638413E2,1.4738828E3,0E0,0E0,0E0,0E0,0E0,0E0,0E0,0E0],"parents":[2147483647,0,0,1,1,2,2,3,3,4,4,5,5,6,6],"right_children":[2,4,6,8,10,12,14,-1,-1,-1,-1,-1,-1,-1,-1],"split_conditions":[-6.523812E-2,-9.897137E-1,8.130137E-1,-1.4981753E0,-6.199235E-1,3.045521E-1,1.4139228E0,-1.3581823E-1,-8.647388E-2,-5.6590065E-2,-2.0771505E-2,2.0562034E-2,5.315422E-2,9.65888E-2,1.5364143E-1],"split_indices":[21,21,21,21,21,21,21,0,0,0,0,0,0,0,0],"split_type":[0,0,0,0,0,0,0,0,0,0,0,0,0,0,0],"sum_hessian":[3.65E2,2.04E2,1.61E2,7.8E1,1.26E2,7.9E1,8.2E1,2.7E1,5.1E1,5.3E1,7.3E1,4E1,3.9E1,5.1E1,3.1E1],"tree_param":{"num_deleted":"0","num_feature":"41","num_nodes":"15","size_leaf_vector":"1"}},{"base_weights":[9.240057E-2,-1.1387799E1,1.7544407E1,-1.9729464E1,-5.6580267E0,1.0146063E1,2.6399187E1,-1.19773135E-1,-7.606069E-2,-3.9783612E-2,-1.8707257E-3,3.3037614E-2,7.290718E-2,1.0837366E-1,1.6291147E-1],"categories":[],"categories_nodes":[],"categories_segments":[],"categories_sizes":[],"default_left":[0,0,0,0,0,0,0,0,0,0,0,0,0,0,0],"id":57,"left_children":[1,3,5,7,9,11,13,-1,-1,-1,-1,-1,-1,-1,-1],"loss_changes":[7.573521E4,1.0661496E4,9.272641E3,1.0075703E3,1.6660332E3,1.1307646E3,5.176328E2,0E0,0E0,0E0,0E0,0E0,0E0,0E0,0E0],"parents":[2147483647,0,0,1,1,2,2,3,3,4,4,5,5,6,6],"right_children":[2,4,6,8,10,12,14,-1,-1,-1,-1,-1,-1,-1,-1],"split_conditions":[5.363546E-1,2.0468128E-1,8.192231E-1,8.615538E-2,4.0438247E-1,7.036853E-1,9.312749E-1,-1.19773135E-1,-7.606069E-2,-3.9783612E-2,-1.8707257E-3,3.3037614E-2,7.290718E-2,1.0837366E-1,1.6291147E-1],"split_indices":[13,13,13,13,13,13,13,0,0,0,0,0,0,0,0],"split_type":[0,0,0,0,0,0,0,0,0,0,0,0,0,0,0],"sum_hessian":[3.74E2,2.26E2,1.48E2,9E1,1.36E2,8.3E1,6.5E1,4.2E1,4.8E1,9.4E1,4.2E1,4.9E1,3.4E1,4.2E1,2.3E1],"tree_param":{"num_deleted":"0","num_feature":"41","num_nodes":"15","size_leaf_vector":"1"}},{"base_weights":[-2.5284758E-1,-1.2441469E1,1.6025953E1,-2.0744104E1,-7.1904044E0,8.380585E0,2.4639988E1,-1.3355142E-1,-8.568819E-2,-5.259768E-2,-1.7300863E-2,2.4395222E-2,5.9003748E-2,9.920752E-2,1.4612886E-1],"categories":[],"categories_nodes":[],"categories_segments":[],"categories_sizes":[],"default_left":[0,0,0,0,0,0,0,0,0,0,0,0,0,0,0],"id":58,"left_children":[1,3,5,7,9,11,13,-1,-1,-1,-1,-1,-1,-1,-1],"loss_changes":[6.904898E4,8.363654E3,9.383258E3,6.978496E2,1.4725161E3,8.5852686E2,3.3403125E2,0E0,0E0,0E0,0E0,0E0,0E0,0E0,0E0],"parents":[2147483647,0,0,1,1,2,2,3,3,4,4,5,5,6,6],"right_children":[2,4,6,8,10,12,14,-1,-1,-1,-1,-1,-1,-1,-1],"split_conditions":[5.054781E-1,1.7181274E-1,7.938247E-1,5.1294822E-2,3.2171315E-1,6.628486E-1,8.994024E-1,-1.3355142E-1,-8.568819E-2,-5.259768E-2,-1.7300863E-2,2.4395222E-2,5.9003748E-2,9.920752E-2,1.4612886E-1],"split_indices":[13,13,13,13,13,13,13,0,0,0,0,0,0,0,0],"split_type":[0,0,0,0,0,0,0,0,0,0,0,0,0,0,0],"sum_hessian":[3.44E2,1.97E2,1.47E2,7.4E1,1.23E2,8E1,6.7E1,2.3E1,5.1E1,6.3E1,6E1,4.2E1,3.8E1,3.8E1,2.9E1],"tree_param":{"num_deleted":"0","num_feature":"41","num_nodes":"15","size_leaf_vector":"1"}},{"base_weights":[-1.788989E-2,-1.23767605E1,1.5427868E1,-2.0715794E1,-7.447359E0,7.4535594E0,2.3812794E1,-1.3375738E-1,-8.595746E-2,-5.577898E-2,-2.0200836E-2,2.079529E-2,5.7348378E-2,9.581603E-2,1.4714275E-1],"categories":[],"categories_nodes":[],"categories_segments":[],"categories_sizes":[],"default_left":[0,0,0,0,0,0,0,0,0,0,0,0,0,0,0],"id":59,"left_children":[1,3,5,7,9,11,13,-1,-1,-1,-1,-1,-1,-1,-1],"loss_changes":[7.043778E4,8.1041816E3,1.0595082E4,6.535996E2,1.570127E3,1.0478857E3,9.105781E2,0E0,0E0,0E0,0E0,0E0,0E0,0E0,0E0],"parents":[2147483647,0,0,1,1,2,2,3,3,4,4,5,5,6,6],"right_children":[2,4,6,8,10,12,14,-1,-1,-1,-1,-1,-1,-1,-1],"split_conditions":[4.935259E-1,1.7181274E-1,7.674303E-1,5.1294822E-2,2.993028E-1,6.4691234E-1,8.994024E-1,-1.3375738E-1,-8.595746E-2,-5.577898E-2,-2.0200836E-2,2.079529E-2,5.7348378E-2,9.581603E-2,1.4714275E-1],"split_indices":[13,13,13,13,13,13,13,0,0,0,0,0,0,0,0],"split_type":[0,0,0,0,0,0,0,0,0,0,0,0,0,0,0],"sum_hessian":[3.65E2,2.03E2,1.62E2,7.3E1,1.3E2,8.5E1,7.7E1,2.2E1,5.1E1,6E1,7E1,4.9E1,3.6E1,4.7E1,3E1],"tree_param":{"num_deleted":"0","num_feature":"41","num_nodes":"15","size_leaf_vector":"1"}},{"base_weights":[2.1695031E-1,-1.14825115E1,1.5744422E1,-1.7858875E1,-5.622911E0,7.4032435E0,2.34992E1,-1.0947031E-1,-7.017054E-2,-4.1350305E-2,-1.4107731E-2,2.2830164E-2,5.4284733E-2,9.0319954E-2,1.4346026E-1],"categories":[],"categories_nodes":[],"categories_segments":[],"categories_sizes":[],"default_left":[0,0,0,0,0,0,0,0,0,0,0,0,0,0,0],"id":60,"left_children":[1,3,5,7,9,11,13,-1,-1,-1,-1,-1,-1,-1,-1],"loss_changes":[6.848735E4,7.820455E3,1.0115414E4,9.4174023E2,8.00583E2,6.8685156E2,1.2826484E3,0E0,0E0,0E0,0E0,0E0,0E0,0E0,0E0],"parents":[2147483647,0,0,1,1,2,2,3,3,4,4,5,5,6,6],"right_children":[2,4,6,8,10,12,14,-1,-1,-1,-1,-1,-1,-1,-1],"split_conditions":[5.054781E-1,2.2111554E-1,7.674303E-1,1.0657371E-1,3.635458E-1,6.4691234E-1,8.894422E-1,-1.0947031E-1,-7.017054E-2,-4.1350305E-2,-1.4107731E-2,2.2830164E-2,5.4284733E-2,9.0319954E-2,1.4346026E-1],"split_indices":[13,13,13,13,13,13,13,0,0,0,0,0,0,0,0],"split_type":[0,0,0,0,0,0,0,0,0,0,0,0,0,0,0],"sum_hessian":[3.73E2,2.13E2,1.6E2,1E2,1.13E2,7.9E1,8.1E1,4.4E1,5.6E1,5.6E1,5.7E1,4.6E1,3.3E1,4.4E1,3.7E1],"tree_param":{"num_deleted":"0","num_feature":"41","num_nodes":"15","size_leaf_vector":"1"}},{"base_weights":[1.1602788E-1,-1.1866037E1,1.5448782E1,-1.9708439E1,-6.569935E0,7.8033667E0,2.337779E1,-1.1855253E-1,-7.7673115E-2,-4.8375648E-2,-1.4678529E-2,2.065361E-2,5.3633317E-2,9.128769E-2,1.416161E-1],"categories":[],"categories_nodes":[],"categories_segments":[],"categories_sizes":[],"default_left":[0,0,0,0,0,0,0,0,0,0,0,0,0,0,0],"id":61,"left_children":[1,3,5,7,9,11,13,-1,-1,-1,-1,-1,-1,-1,-1],"loss_changes":[6.7425516E4,8.28393E3,9.379469E3,6.1343164E2,1.3587969E3,8.165337E2,9.1758984E2,0E0,0E0,0E0,0E0,0E0,0E0,0E0,0E0],"parents":[2147483647,0,0,1,1,2,2,3,3,4,4,5,5,6,6],"right_children":[2,4,6,8,10,12,14,-1,-1,-1,-1,-1,-1,-1,-1],"split_conditions":[5.054781E-1,1.8824701E-1,7.674303E-1,7.669323E-2,3.436255E-1,6.314741E-1,8.894422E-1,-1.1855253E-1,-7.7673115E-2,-4.8375648E-2,-1.4678529E-2,2.065361E-2,5.3633317E-2,9.128769E-2,1.416161E-1],"split_indices":[13,13,13,13,13,13,13,0,0,0,0,0,0,0,0],"split_type":[0,0,0,0,0,0,0,0,0,0,0,0,0,0,0],"sum_hessian":[3.63E2,2.04E2,1.59E2,8E1,1.24E2,8.3E1,7.6E1,3.6E1,4.4E1,6.5E1,5.9E1,3.9E1,4.4E1,4.2E1,3.4E1],"tree_param":{"num_deleted":"0","num_feature":"41","num_nodes":"15","size_leaf_vector":"1"}},{"base_weights":[-2.4975993E-1,-1.1158171E1,1.5546182E1,-1.7438213E1,-4.7317877E0,1.021225E1,1.280325E-1,-1.20144516E-1,-6.6988096E-2,-5.0095156E-2,-7.1787266E-3,2.5791764E-2,6.7987554E-2],"categories":[],"categories_nodes":[],"categories_segments":[],"categories_sizes":[],"default_left":[0,0,0,0,0,0,0,0,0,0,0,0,0],"id":62,"left_children":[1,3,5,7,9,11,-1,-1,-1,-1,-1,-1,-1],"loss_changes":[6.4960473E4,8.823715E3,7.7228945E3,2.3200195E3,1.934752E3,1.6296514E3,0E0,0E0,0E0,0E0,0E0,0E0,0E0],"parents":[2147483647,0,0,1,1,2,2,3,3,4,4,5,5],"right_children":[2,4,6,8,10,12,-1,-1,-1,-1,-1,-1,-1],"split_conditions":[8.8248764E1,7.248096E1,1.1149525E2,6.309483E1,-3.7974656E-2,-1.7094016E-2,1.280325E-1,-1.20144516E-1,-6.6988096E-2,-5.0095156E-2,-7.1787266E-3,2.5791764E-2,6.7987554E-2],"split_indices":[11,11,11,11,10,10,0,0,0,0,0,0,0],"split_type":[0,0,0,0,0,0,0,0,0,0,0,0,0],"sum_hessian":[3.73E2,2.21E2,1.52E2,1.1E2,1.11E2,1.02E2,5E1,3.8E1,7.2E1,4.1E1,7E1,4.3E1,5.9E1],"tree_param":{"num_deleted":"0","num_feature":"41","num_nodes":"13","size_leaf_vector":"1"}},{"base_weights":[9.9354064E-1,-1.0540755E1,1.7549597E1,-1.8299608E1,-4.153827E0,1.0268268E1,2.5466574E1,-1.1507703E-1,-6.969089E-2,-3.3857867E-2,3.3208474E-3,3.3487804E-2,6.971571E-2,1.0763902E-1,1.581082E-1],"categories":[],"categories_nodes":[],"categories_segments":[],"categories_sizes":[],"default_left":[0,0,0,0,0,0,0,0,0,0,0,0,0,0,0],"id":63,"left_children":[1,3,5,7,9,11,13,-1,-1,-1,-1,-1,-1,-1,-1],"loss_changes":[6.9310914E4,1.0441568E4,8.04841E3,1.3144297E3,1.5255237E3,8.657842E2,3.0897266E2,0E0,0E0,0E0,0E0,0E0,0E0,0E0,0E0],"parents":[2147483647,0,0,1,1,2,2,3,3,4,4,5,5,6,6],"right_children":[2,4,6,8,10,12,14,-1,-1,-1,-1,-1,-1,-1,-1],"split_conditions":[1.19657E-1,-8.048186E-1,9.9790883E-1,-1.2670563E0,-2.96357E-1,5.35671E-1,1.5525942E0,-1.1507703E-1,-6.969089E-2,-3.3857867E-2,3.3208474E-3,3.3487804E-2,6.971571E-2,1.0763902E-1,1.581082E-1],"split_indices":[21,21,21,21,21,21,21,0,0,0,0,0,0,0,0],"split_type":[0,0,0,0,0,0,0,0,0,0,0,0,0,0,0],"sum_hessian":[3.59E2,2.12E2,1.47E2,9.4E1,1.18E2,7.9E1,6.8E1,4.1E1,5.3E1,7.6E1,4.2E1,4.3E1,3.6E1,4.7E1,2.1E1],"tree_param":{"num_deleted":"0","num_feature":"41","num_nodes":"15","size_leaf_vector":"1"}},{"base_weights":[-6.276047E-1,-1.1912573E1,1.5456567E1,-1.9592556E1,-5.9900055E0,6.872923E0,2.3527431E1,-1.237262E-1,-7.844291E-2,-4.4570263E-2,-1.2340425E-2,1.796114E-2,4.711936E-2,8.27772E-2,1.3379765E-1],"categories":[],"categories_nodes":[],"categories_segments":[],"categories_sizes":[],"default_left":[0,0,0,0,0,0,0,0,0,0,0,0,0,0,0],"id":64,"left_children":[1,3,5,7,9,11,13,-1,-1,-1,-1,-1,-1,-1,-1],"loss_changes":[6.734344E4,9.668268E3,1.0260844E4,1.0942461E3,1.2478887E3,5.701907E2,8.4997656E2,0E0,0E0,0E0,0E0,0E0,0E0,0E0,0E0],"parents":[2147483647,0,0,1,1,2,2,3,3,4,4,5,5,6,6],"right_children":[2,4,6,8,10,12,14,-1,-1,-1,-1,-1,-1,-1,-1],"split_conditions":[5.054781E-1,1.8824701E-1,7.674303E-1,6.822709E-2,3.635458E-1,6.125498E-1,8.700199E-1,-1.237262E-1,-7.844291E-2,-4.4570263E-2,-1.2340425E-2,1.796114E-2,4.711936E-2,8.27772E-2,1.3379765E-1],"split_indices":[13,13,13,13,13,13,13,0,0,0,0,0,0,0,0],"split_type":[0,0,0,0,0,0,0,0,0,0,0,0,0,0,0],"sum_hessian":[3.67E2,2.16E2,1.51E2,9.2E1,1.24E2,7.5E1,7.6E1,3.5E1,5.7E1,6.6E1,5.8E1,3.5E1,4E1,2.8E1,4.8E1],"tree_param":{"num_deleted":"0","num_feature":"41","num_nodes":"15","size_leaf_vector":"1"}},{"base_weights":[-7.241695E-1,-1.1321036E1,1.4468463E1,-1.8391033E1,-6.1501956E0,7.267373E0,2.2342188E1,-1.10324435E-1,-7.053136E-2,-4.353427E-2,-1.2676567E-2,1.8181713E-2,5.088442E-2,8.097015E-2,1.3121724E-1],"categories":[],"categories_nodes":[],"categories_segments":[],"categories_sizes":[],"default_left":[0,0,0,0,0,0,0,0,0,0,0,0,0,0,0],"id":65,"left_children":[1,3,5,7,9,11,13,-1,-1,-1,-1,-1,-1,-1,-1],"loss_changes":[6.150386E4,7.9870215E3,8.562262E3,8.3911914E2,1.179419E3,8.1706396E2,9.037344E2,0E0,0E0,0E0,0E0,0E0,0E0,0E0,0E0],"parents":[2147483647,0,0,1,1,2,2,3,3,4,4,5,5,6,6],"right_children":[2,4,6,8,10,12,14,-1,-1,-1,-1,-1,-1,-1,-1],"split_conditions":[4.935259E-1,2.0468128E-1,7.559761E-1,9.611554E-2,3.635458E-1,6.314741E-1,8.570717E-1,-1.10324435E-1,-7.053136E-2,-4.353427E-2,-1.2676567E-2,1.8181713E-2,5.088442E-2,8.097015E-2,1.3121724E-1],"split_indices":[13,13,13,13,13,13,13,0,0,0,0,0,0,0,0],"split_type":[0,0,0,0,0,0,0,0,0,0,0,0,0,0,0],"sum_hessian":[3.78E2,2.23E2,1.55E2,9.2E1,1.31E2,8.3E1,7.2E1,4.5E1,4.7E1,7.5E1,5.6E1,3.9E1,4.4E1,3.2E1,4E1],"tree_param":{"num_deleted":"0","num_feature":"41","num_nodes":"15","size_leaf_vector":"1"}},{"base_weights":[4.876305E-1,-1.0510707E1,1.6610361E1,-1.8741982E1,-5.523355E0,9.273092E0,2.473497E1,-1.1552046E-1,-7.2037935E-2,-3.9067958E-2,-4.424011E-4,2.8752463E-2,6.379471E-2,1.0226485E-1,1.5749355E-1],"categories":[],"categories_nodes":[],"categories_segments":[],"categories_sizes":[],"default_left":[0,0,0,0,0,0,0,0,0,0,0,0,0,0,0],"id":66,"left_children":[1,3,5,7,9,11,13,-1,-1,-1,-1,-1,-1,-1,-1],"loss_changes":[6.4720555E4,8.689172E3,8.346898E3,8.4697266E2,1.7123726E3,8.38624E2,6.839414E2,0E0,0E0,0E0,0E0,0E0,0E0,0E0,0E0],"parents":[2147483647,0,0,1,1,2,2,3,3,4,4,5,5,6,6],"right_children":[2,4,6,8,10,12,14,-1,-1,-1,-1,-1,-1,-1,-1],"split_conditions":[7.343322E-2,-8.9726615E-1,9.51685E-1,-1.3132802E0,-3.8880458E-1,4.4322345E-1,1.5063704E0,-1.1552046E-1,-7.2037935E-2,-3.9067958E-2,-4.424011E-4,2.8752463E-2,6.379471E-2,1.0226485E-1,1.5749355E-1],"split_indices":[21,21,21,21,21,21,21,0,0,0,0,0,0,0,0],"split_type":[0,0,0,0,0,0,0,0,0,0,0,0,0,0,0],"sum_hessian":[3.61E2,2.15E2,1.46E2,7.9E1,1.36E2,7.9E1,6.7E1,3.5E1,4.4E1,9.5E1,4.1E1,4.2E1,3.7E1,4.6E1,2.1E1],"tree_param":{"num_deleted":"0","num_feature":"41","num_nodes":"15","size_leaf_vector":"1"}},{"base_weights":[-5.832875E-1,-1.2284363E1,1.3811521E1,-2.002676E1,-8.073051E0,5.864111E0,2.1989065E1,-1.1586106E-1,-8.00139E-2,-5.4862794E-2,-2.2461656E-2,1.4854759E-2,4.2177696E-2,8.244529E-2,1.3291301E-1],"categories":[],"categories_nodes":[],"categories_segments":[],"categories_sizes":[],"default_left":[0,0,0,0,0,0,0,0,0,0,0,0,0,0,0],"id":67,"left_children":[1,3,5,7,9,11,13,-1,-1,-1,-1,-1,-1,-1,-1],"loss_changes":[6.535437E4,6.640203E3,1.1036492E4,1.7541016E2,1.3679736E3,6.2117285E2,1.2493008E3,0E0,0E0,0E0,0E0,0E0,0E0,0E0,0E0],"parents":[2147483647,0,0,1,1,2,2,3,3,4,4,5,5,6,6],"right_children":[2,4,6,8,10,12,14,-1,-1,-1,-1,-1,-1,-1,-1],"split_conditions":[4.8256972E-1,1.5786852E-1,7.4302787E-1,6.822709E-2,2.993028E-1,5.936255E-1,8.700199E-1,-1.1586106E-1,-8.00139E-2,-5.4862794E-2,-2.2461656E-2,1.4854759E-2,4.2177696E-2,8.244529E-2,1.3291301E-1],"split_indices":[13,13,13,13,13,13,13,0,0,0,0,0,0,0,0],"split_type":[0,0,0,0,0,0,0,0,0,0,0,0,0,0,0],"sum_hessian":[3.84E2,2.12E2,1.72E2,7.2E1,1.4E2,8.9E1,8.3E1,3.5E1,3.7E1,7.5E1,6.5E1,4.4E1,4.5E1,4.2E1,4.1E1],"tree_param":{"num_deleted":"0","num_feature":"41","num_nodes":"15","size_leaf_vector":"1"}},{"base_weights":[-2.8188422E-1,-1.0275838E1,1.437634E1,-1.5969211E1,-4.496172E0,7.2062902E0,2.1936775E1,-1.0551356E-1,-6.273957E-2,-3.6975082E-2,6.872092E-4,4.8086938E-2,1.5871393E-2,8.4234625E-2,1.2475601E-1],"categories":[],"categories_nodes":[],"categories_segments":[],"categories_sizes":[],"default_left":[0,0,0,0,0,0,0,0,0,0,0,0,0,0,0],"id":68,"left_children":[1,3,5,7,9,11,13,-1,-1,-1,-1,-1,-1,-1,-1],"loss_changes":[5.420306E4,7.0854395E3,7.8005684E3,1.385541E3,1.51006E3,7.1027344E2,2.4309375E2,0E0,0E0,0E0,0E0,0E0,0E0,0E0,0E0],"parents":[2147483647,0,0,1,1,2,2,3,3,4,4,5,5,6,6],"right_children":[2,4,6,8,10,12,14,-1,-1,-1,-1,-1,-1,-1,-1],"split_conditions":[8.8248764E1,7.387551E1,1.0588169E2,6.506908E1,8.147557E1,9.485714E1,1.1311667E2,-1.0551356E-1,-6.273957E-2,-3.6975082E-2,6.872092E-4,4.8086938E-2,1.5871393E-2,8.4234625E-2,1.2475601E-1],"split_indices":[11,11,11,11,11,3,11,0,0,0,0,0,0,0,0],"split_type":[0,0,0,0,0,0,0,0,0,0,0,0,0,0,0],"sum_hessian":[3.66E2,2.18E2,1.48E2,1.08E2,1.1E2,7.8E1,7E1,3.9E1,6.9E1,6.7E1,4.3E1,4.7E1,3.1E1,3.1E1,3.9E1],"tree_param":{"num_deleted":"0","num_feature":"41","num_nodes":"15","size_leaf_vector":"1"}},{"base_weights":[8.7259617E-4,-1.283387E1,1.4977705E1,-2.0655178E1,-7.5319552E0,7.075263E0,2.3086967E1,-1.2708546E-1,-8.480911E-2,